0.71311960.36247060.279312460.37902588-0.39521396
-0.172184270.51273155-0.284315740.049294710.51076865
-0.301447240.201223150.0211797950.58325170.9538876
0.208771420.18342158-0.31248480.841315270.05128428
0.35197654-0.67298830.20963554-0.392289640.6432035
0.1762766-0.29785043-0.206128390.16960281-0.4065007

0.054010548-0.4109084-0.24309610.152860690.695996
0.15953472-0.32766455-0.6671596-1.0833323-0.39340094
-0.49462720.405929420.43164137-0.17137599-0.27994627
-0.063776515-0.7459318-0.22697453-0.16450778-0.29639286
0.2710086-0.6204682-0.2337716-0.30110988-0.5158761
-0.195430190.057868548-0.366997570.33725476-0.5956623

0.236574410.10436951-0.462048650.41040775-0.1961405
0.82077950.10565061-0.12760867-0.232105760.17119423
-0.21320198-0.51986134-1.0257906-0.450001660.34208256
0.015784790.106412660.653676750.587757230.07081805
-0.089181475-0.475777420.40083620.581383760.4970046
0.7555475-0.314398080.5379451-0.25535598-1.1535802

0.36937931.0734570.56456040.139888420.44514838
-0.45457292-0.025891948-0.267672060.6114180.17380965
0.60654640.10472430.25013348-0.94527555-0.081055105
-0.39353734-0.247865440.14216019-0.14440680.7175385
-0.29958308-0.249044220.48107070.328526560.6872771
-0.0042994986-0.381355520.092816025-0.0159831640.27610368

0.66188383-0.220507130.95010465-0.096735220.13011315
0.467831020.070799460.10463910.05098195-0.4260791
-0.412691680.127559040.589892860.26204062-0.97787386
-0.24750757-0.63396590.67167890.53831270.12968613
-0.208232130.024002004-0.93407790.21968271-0.838798
-0.13983870.315139380.206688880.581034240.8333113

-0.348376930.18128727-0.1321888-0.056911454-0.14844899
0.919844-0.37554050.0659389-0.17826146-0.37275028
0.243478670.1199559940.0561948340.83436790.21377638
-0.345480170.094494020.175599930.15637082-0.2575602
-0.806131840.54750574-0.341062930.33613303-0.30728054
0.48435470.67256390.61546640.14137635-0.6781856

-0.07661435-0.0904865340.167382910.360606070.550131
-0.401167480.638557140.722654040.6105938-0.12669432
-0.15298022-0.80073637-0.153828260.507721660.5430119
-0.345480170.094494020.101399930.38470903-0.28304675
-0.208232130.024002004-0.9340779-0.04177035-0.42040995
-0.10546631-0.6177178-0.50443780.779989660.38457662

0.7180219-0.174520030.103799485-0.36969367-0.5936485
-0.959216060.05578563-0.632090870.1359213-0.16552179
-0.08224137-0.30834540.139066550.17056549-0.47401494
0.047487280.192671870.5464637-0.528998850.94363195
0.5001942-0.10857380.063835950.0457825180.45563513
-0.2309865-0.74496140.28501877-0.0155763550.30418217

0.18427649-0.187385950.53035814-0.31134040.2655205
-0.172184270.51273155-0.265366970.0179555450.51076865
-0.301447240.201223150.389291670.58325170.99398917
0.208771420.18342158-0.40348310.864366530.05128428
0.593023-0.182380480.30314225-0.25031757-0.5307718
0.0423473380.25129282-0.25811622-0.0362650.030179799

0.7970827-0.378225980.18540466-0.164656240.04808236
0.40955263-0.37544566-0.6984286-0.0025878586-0.2336521
0.39246430.0584753860.4424047-0.39937946-0.32546556
-0.42723727-0.021191683-0.18726127-0.129204260.25986442
0.631883440.038859203-0.187023160.12740617-0.5933828
-0.060566510.049128618-0.65722835-0.13691520.3216439

0.29135840.5373686-0.516738650.0056693824-0.09735681
-0.99420770.126335840.18169981-0.323702450.6337559
0.425466120.64691275-0.2604339-0.39708194-0.67663956
-0.168940440.66949750.186855350.39153870.32539663
0.28557703-0.32103345-0.19406377-0.121568170.47729078
0.13979343-0.47392710.13206013-0.184327260.17081903

-0.0106004765-0.9951423-1.7995647-0.22915982-0.15781203
0.19062760.0189302470.77736217-0.00572934750.16168216
0.0037592289-0.022580750.22977872-0.6325738-0.046036497
0.2743498-0.958648440.071698904-0.029968502-0.7201453
-0.99766410.48451770.171717480.39624327-0.22528225
0.246896-0.2310147-0.11001494-0.167327020.18095855

-0.431495820.075396284-0.320196030.0961735840.07614139
-0.0568415450.629326340.510679-0.868854050.6336307
-0.49462720.510241270.43164137-0.17137599-0.27994627
-0.17631331-0.8212875-0.570440230.0644872040.52372944
-0.492646750.0495668840.14435650.18361971-0.44405296
0.5790271-0.044901240.016622577-0.27003998-0.117014095

-0.493818580.17852433-0.1099478160.5070009-0.0129749505
-0.09394602-0.047460813-0.020675728-0.08250338-0.35489157
0.39246430.0584753860.4424047-0.39937946-0.32546556
-0.175838440.437164250.8714908-0.40316087-0.100990385
0.13159205-0.27706462-0.3317070.093827054-0.4470864
0.0119707540.89122260.469736960.080374904-0.21535546

0.234988450.0139800350.41009533-0.110685670.105240695
-0.093186624-0.31677210.79947406-0.0972373260.50353867
0.061615348-0.2698065-0.031885721.1699259-0.46657708
0.5143801-0.30995320.49244654-0.38059023-0.7152009
-0.4327976-0.0498788130.29468647-0.107597010.51598954
-0.9998511-0.093045580.542233470.71375960.6604536

0.29135840.5373686-0.516738650.0056693824-0.09735681
-0.172184270.51273155-0.284315740.049294710.51076865
-0.301447240.201223150.389291670.58325170.9538876
0.208771420.18342158-0.31248480.864366530.05128428
0.5930230.0240159130.30314225-0.25031757-0.5307718
-0.0032685308-0.3515039-0.0079852930.099208120.22023788

-0.23942670.195136310.392478620.616384150.39166823
-0.472177330.233735370.50323820.32322627-0.06751571
-0.040465940.17590714-0.7042330.209592670.05470804
-0.32258514-0.49516633-0.6236451-0.06651351-0.08358603
-0.0327850170.52009904-0.329754320.25539178-0.20982923
0.1680291-0.17577483-0.38700170.09111258-0.975347

0.38062683-0.07293424-0.116074240.156021740.07302872
-1.17145530.63746060.87386790.15220402-0.056167684
0.15731336-0.11510893-0.672022940.79729986-0.020393554
-0.14880377-0.0306417180.7733238-0.280261550.24631028
0.79586726-0.174301340.285568540.22901532-0.58469355
-0.323171470.25881273-0.42827925-0.06704340.0814638

0.0162023470.2200970.34257580.0733347460.1797835
0.194107890.83679740.45060676-0.26450220.2727475
-0.7680911-0.4574508-0.49528393-0.41802055-0.5545326
0.33468458-0.166177420.429682-0.17773832-0.7916642
-0.21412587-0.041874096-0.96322060.17298888-0.56864357
0.396989940.26083317-0.284359570.38373813-0.21494731

-0.674831030.02197269-0.509467-0.130535240.53114015
-0.21665166-0.63320714-0.184164990.047272176-0.39910394
-0.240097270.0631656940.69083090.16990758-0.3166932
-0.0155976840.44928110.26821440.123100810.60336226
0.171019930.236773390.53499770.76163690.116509266
-0.88385135-0.248192640.43470958-1.12750270.6623417

0.135724070.62724894-0.9385073-0.35461630.63844645
0.5473738-0.29772055-0.42345480.5892595-0.6254861
-0.38740742-0.04579765-0.07647944-0.559188960.5146131
-0.29774840.33758947-0.5840012-0.63535166-0.22148424
0.8085746-0.154343110.81938815-0.766131-0.93582565
-0.0351114460.0163066070.53791744-0.62470055-0.48657686

0.83029520.7165701-0.340721220.5639402-0.15162177
0.352984130.58580220.21767792-0.073237850.23309946
0.862140950.64637090.52825373-0.65360030.4592716
0.097656460.12702577-0.43788734-0.153542240.019965244
0.4308511-0.12984063-0.59345180.495456670.1331069
0.48435470.338741480.61546640.14137635-0.6781856

-0.300873070.423522680.09574504-0.39998794-0.31784484
-0.0637190.42065550.2089137-0.47614920.6257647
0.60654640.10472430.67013514-0.94527555-0.081055105
-0.050923288-0.555039-0.29193613-0.08024327-0.31110907
0.07330984-0.180390920.54081476-0.11376893-0.095608436
0.179446650.194080740.6486233-0.29945758-0.7718367

0.0491677450.10386261-0.06616462-0.13458656-0.41757143
-0.48482670.615981460.55879766-0.31557740.07125175
0.22123581-0.33387744-0.56595796-0.884932640.0179026
-0.32258514-0.49516633-0.62364510.0039779916-0.08358603
-0.0327850170.52009904-0.306157650.37533718-0.20982923
-0.56585730.0532643980.016999278-0.57895637-0.48211935

-0.28300923-0.4809625-0.3951597-0.25557023-0.18477239
-0.1761643-0.570407750.074492830.287413540.3838433
-0.431578040.054191828-0.45560315-0.2526525-0.14508171
0.371413920.21921021-0.20115642-0.196813-0.23931457
-0.208232130.024002004-0.9340779-0.04177035-0.9625449
-0.13983870.315139380.206688880.581034240.8333113

0.71883110.5390903-0.3140066-0.56322240.0792768
-0.48482670.53462190.55879766-0.31139870.07125175
0.22123581-0.33387744-0.56595796-0.884932640.0179026
-0.43214375-0.516081630.41379870.237666220.17026079
0.13159205-0.27706462-0.3317070.093827054-0.4655733
0.011970754-0.0058089540.469736960.080374904-0.16307358

-0.098033280.24296902-0.34747058-0.48368883-0.06551874
-0.172184270.51273155-0.284315740.049294710.51076865
-0.0584507730.201223150.0211797950.58325170.9538876
0.208771420.18342158-0.31248480.841315270.05128428
-0.071391110.55857944-0.36594390.30347762-0.37988302
0.0163509040.16502783-0.61034840.2408688-0.5226978

-0.300873070.423522680.09574504-0.39998794-0.31784484
-0.472177330.233735370.50323820.32322627-0.06751571
0.352324720.36097970.775333170.068003796-0.68393713
-0.0248075610.184130920.0695384740.17269950.9391374
-0.55273694-0.51013940.43665484-0.045035170.19401032
1.13574980.259262080.4960345-0.073169750.3278646

-0.232865270.50949940.55316925-0.089297384-0.15125017
0.71363765-0.971533060.905654250.044745445-0.08471258
-0.0448671650.022753961-0.248333330.24752659-0.28497577
-0.219719720.16883159-0.13886961-0.46803012-0.5433298
-0.21248877-0.09737534-0.237393-0.161525860.75400054
0.6342639-0.70512974-0.80922330.389990660.069206215

0.44211832-0.015223235-0.8023502-0.496524-0.2269631
-0.49562550.29981717-0.0618781-0.027708117-0.535416
0.21639718-0.26620775-0.335011570.381411520.42667478
0.23537686-0.48766723-0.3491397-0.204019070.016812952
0.3642364-0.8228375-0.0418140070.34407166-0.48355234
0.081766166-0.5631554-0.21520907-0.766779-0.80784523

-0.493818580.035867095-0.1099478160.5070009-0.0129749505
-0.0637190.42065550.2089137-0.47614920.6257647
-0.09899514-0.711723860.11474317-1.23801950.062433302
0.25846326-0.30492008-1.1742318-0.017570546-0.5658401
-0.5557883-0.08792525-0.78043790.8225073-0.92622817
-0.012916009-0.9722603-0.42118916-0.66183790.089176364

-0.66849810.223186060.23782341.0657146-1.3150693
-0.16878517-0.10946575-1.01880490.42218587-0.84803504
0.457219180.36097970.775333170.068003796-0.68393713
0.3771064-0.35332763-0.86324270.33152460.25576523
-0.19336121-0.487997230.491355720.28994957-0.8142372
0.196025460.2022687-0.1670257-0.07872119-0.31648716

-0.300873070.53558010.09574504-0.39998794-0.31784484
-0.406100870.23778045-0.15641640.44228017-0.19171157
0.5629374-0.149233129.7240764E-40.300806460.6411224
-0.96851480.112105190.178031640.24917451.019173
-0.248888760.15669891-0.49729308-1.1480459-0.03074471
0.192010020.82683927-0.199288670.2532747-0.11717442

-0.22589202-0.37565067-0.460353881.0069406-0.067277215
0.15131323-0.233260930.12788537-0.322115750.025840312
0.22123581-0.33387744-0.2847856-0.884932640.0179026
-0.050923288-0.555039-0.29193613-0.08024327-0.31110907
-0.015375964-0.180390920.8559617-0.11376893-0.095608436
0.179446650.113568020.6486233-0.29945758-0.7718367

0.30201298-0.49581080.007420540.139308870.42016998
0.08233762-0.47673723-0.941118960.203920250.22305052
0.0018166824-0.46430240.41784084-0.10497994-0.4751069
0.3771064-0.35332763-0.86324270.33152460.25576523
-0.19336121-0.487997230.491355720.28994957-0.8142372
0.70824397-0.0351766050.050392594-0.2165557-0.05348946

0.7180219-0.63573350.025871685-0.36969367-0.5936485
-0.217943950.23396140.13706076-0.40718186-0.37034318
-0.057139910.25381815-0.85891510.345516150.5000354
-0.51400440.100281090.029204450.22582877-0.3371052
-0.4754120.24881080.578863560.42081276-0.17409617
-0.356587650.369787340.0372770730.575657840.43613565

0.048862826-0.20647797-0.190351340.082223095-0.68314856
-0.406100870.39916784-0.15641640.44228017-0.19171157
0.28703102-0.54918680.23406051-0.7119481-0.07440878
-0.080755875-0.14610058-0.17804074-0.35274756-0.42470923
-0.11842029-0.56142765-0.160497410.3499295-0.7045219
-0.883851350.0587148070.4637669-0.65795260.6623417

-0.66893680.017863303-0.0146298650.17258799-0.344521
-0.140217290.0351236650.65137710.93366456-0.18845026
0.123655750.2548804-0.10933687-0.33945942-0.038624413
-0.219719720.16883159-0.3060612-0.46803012-0.5433298
-0.33632553-0.196461360.163532210.56776390.13248071
-0.179572640.7112508-0.166838970.30430478-0.26922905

0.7180219-0.174520030.025871685-0.36969367-0.462537
0.24700518-0.7802279-0.8879660.268740240.5540165
0.5719939-0.224781870.24840972-0.51197267-0.58659506
0.3851327-0.7105428-0.18472183-0.770336450.43951824
0.0898382440.22602464-0.33820890.16297330.21587142
-0.762141640.053264398-0.25770643-0.57895637-0.48211935

-0.232865270.82373720.553169250.0487736-0.15125017
-0.406100870.23778045-0.15641640.44228017-0.19171157
0.5629374-0.149233129.7240764E-40.300806460.6411224
-0.96851480.112105190.17803164-0.0689640051.019173
-0.248888760.15669891-0.49729308-1.1480459-0.03074471
0.192010020.82683927-0.199288670.2532747-0.05237846

0.0491677450.10386261-0.06616462-0.13458656-0.89434445
-0.030282987-0.3119660.74246120.096542045-0.001874432
0.60654640.10472430.41525686-0.94527555-0.081055105
-0.050923288-0.555039-0.29193613-0.08024327-0.046682447
0.07330984-0.180390920.54081476-0.11376893-0.095608436
0.179446650.194080740.6486233-0.29945758-0.7718367

1.0684254-0.64598330.046026744-1.0620712-0.13750657
-0.0124058360.6104570.130490150.6547344-0.06727696
-0.352625550.213261130.133118180.020650592-0.24007426
0.3771064-0.35332763-0.92478040.33152460.25576523
-0.19336121-0.487997230.491355720.28994957-0.8142372
-1.0094911.18122020.42808557-0.09063462-0.16177297

-0.0354847130.141528220.181179340.36283696-0.020341918
-0.140217290.047535660.65137710.93366456-0.18845026
0.123655750.2548804-0.10933687-0.21754038-0.0033236155
-0.118299470.3088312-0.47385445-0.1434131.0065578
-0.6443541-0.40885115-1.04247580.21554296-1.0263371
-0.17182103-0.14696406-0.438090260.1035515-0.30850208

0.71448070.152757960.075494770.17996912-0.19068752
-0.46727510.7262146-0.28729940.54947770.41745552
-0.231168630.52728250.36654690.32750260.36697346
-0.219719720.16883159-0.13886961-0.46803012-0.5433298
-0.21248877-0.09737534-0.237393-0.161525860.75400054
0.1597221-0.22266357-0.0986191260.335533380.17701553

-0.232865270.50949940.553169250.0487736-0.15125017
-0.1761643-0.492621660.074492830.287413540.3838433
0.061615348-0.2698065-0.031885721.1699259-0.46657708
0.5143801-0.30995320.49244654-0.3005991-0.7152009
-0.462307480.054867636-0.0600571220.37405476-0.5138235
-0.0534752050.15541388-0.132909720.083436940.3449259

0.135724070.62724894-0.9385073-0.35461630.63844645
0.06313304-0.12327956-0.011417407-0.0181919630.0026760083
0.00375922890.190912430.22977872-0.6325738-0.046036497
0.2743498-0.958648440.071698904-0.029968502-0.7201453
-0.25168710.42279154-0.05105727-0.0995037260.602788
0.9270228-0.0078497910.29879963-0.144630220.11719766

-1.2115277-0.28889480.010445412-0.261263220.08707892
0.342569740.033208534-0.253369540.33753756-0.18568529
0.05484950.38188950.2206541-0.20974578-0.7857044
-0.26797676-0.1153958440.11575459-0.07167010.20558338
0.2585368-0.24211064-0.58388716-0.65562680.25151196
0.155229520.391395420.196283980.364208850.0837323

0.12841162-0.16007039-0.343148170.14593817-0.11676985
0.15953472-0.3676122-0.6671596-1.0833323-0.39340094
-0.49462720.510241270.43164137-0.17137599-0.27994627
-0.17631331-0.8212875-0.570440230.0644872040.52372944
0.79586726-0.174301340.285568540.22901532-0.7455986
-0.398027180.46599534-0.5707880.23539628-0.689732

-0.13461624-0.75777880.049770540.52986910.6563517
-0.11454547-0.60549290.101505145-0.226663110.6416852
-0.37196840.63170660.68811870.6676783-0.73342973
-0.0155976840.44928110.26821440.123100810.60336226
0.466336730.236773390.53499770.64782910.116509266
-0.33434448-0.4641587-0.10993115-0.3005782-0.1613093

-0.249625370.19421405-0.30203950.068724050.35961002
0.26405546-0.096931204-0.614858270.59277153-0.06180655
0.09002247-0.95445186-0.69065650.168192520.62499416
0.70275820.30090305-0.20115642-0.196813-0.43915945
-0.67741430.691935960.79992440.05863359-0.08657545
0.246896-0.2310147-0.11001494-0.16732702-0.108315274

0.15221043-0.16189897-0.151892750.678266940.47737458
0.47376030.27870290.297653230.12080559-0.6168287
0.45377220.034867615-0.18476075-0.43710166-0.2491667
0.39656776-0.958648440.071698904-0.029968502-0.7201453
-0.25168710.42279154-0.05105727-0.0995037260.602788
0.9270228-0.0078497910.29879963-0.317858640.11719766

-0.232865270.50949940.553169250.0487736-0.15125017
0.15953472-0.3676122-0.6671596-1.0833323-0.39340094
-0.49462720.510241270.43164137-0.17137599-0.27994627
-0.43214375-0.63274670.541387860.237666220.17026079
-0.07765782-0.3941177-0.8654746-0.593647660.3715551
-0.63789076-0.22980420.7032474-0.10216107-0.30607763

0.221177090.3795858-0.1615289-0.5192398-0.40952966
-0.17044413-0.6990923-0.13563226-0.846165540.48103082
0.58573616-0.25785023-0.030200763-0.21705034-0.12820688
-0.290407720.66738130.17033419-0.041620206-0.06225227
0.2592738-0.19183427-0.77041626-0.259451060.06922291
0.30056003-2.0833513E-40.0284632780.14752136-0.41437882

-0.6014406-0.31319420.13691144-0.46926188-0.75040036
-0.05278120.621786240.153559330.03681460.2587438
-0.53970534-0.150023010.142344770.30406538-0.051888667
-0.11315082-0.49516633-0.62364510.12419675-0.08358603
-0.0327850170.48436683-0.083934530.25539178-0.07644823
0.142476750.099083714-0.157192080.41008323-0.049326602

0.2342897-0.66632533-0.190406650.066333360.14228117
-0.47510844-0.153409360.6225265-0.12785988-0.3378307
-0.0402044770.113861140.172232390.49207205-0.15610723
-0.219719720.16883159-0.13886961-0.651512-0.5433298
-0.21248877-0.28186393-0.237393-0.161525860.75400054
0.1597221-0.22266357-0.00320552570.335533380.17701553

0.33847922-0.04618491-0.154333680.339754760.43394995
-0.16103140.23218957-0.320358630.182435620.4484529
0.9054502-0.654549840.287511080.43973055-0.5070183
0.201037180.464607150.68509590.627026560.518105
-0.81947595-0.787594440.4388706-0.06934360.30063817
-0.0212440920.6295388-0.23801440.78474280.03177181

0.58387643-0.2595717-0.18387039-0.56914220.16122137
-0.48482670.53462190.55879766-0.31139870.07125175
0.22123581-0.33387744-0.56595796-0.884932640.0179026
-0.43214375-0.516081630.41379870.237666220.17026079
0.13159205-0.27706462-0.3317070.37645072-0.4655733
0.011970754-0.0058089540.469736960.080374904-0.16307358

0.30201298-0.49581080.007420540.139308870.42016998
-0.959216060.05578563-0.632090870.20705576-0.16552179
-0.08224137-0.30834540.139066550.17056549-0.47401494
0.047487280.192671870.5464637-0.528998850.94363195
-0.29958308-0.249044220.48107070.328526560.6872771
-0.17182103-0.14696406-0.371147870.1035515-0.30850208

-0.249625370.084553930.108541460.068724050.35961002
-0.889514270.167470380.0018303117-0.473201840.18458986
0.870060440.026930595-0.195689750.077644380.09410812
0.20916751-0.19569513-0.06480040.208865210.70426077
0.21975462-0.06870985-0.40371610.6207302-0.67530346
0.0163509040.16502783-0.61034840.24236427-0.5226978

-0.335991230.1039426-0.69903105-0.534785150.69934654
-0.44506580.22038285-0.84295297-0.42536646-0.614866
-0.57387996-0.1272522-0.190445130.51075620.9280186
-0.703404-0.18266091-0.852280260.107100666-0.113310196
0.287747560.0113616870.555877570.29501188-0.38735068
-0.162825720.10029945-1.0289185-0.1721821-0.78538287

-0.300873070.405253140.09574504-0.39998794-0.2683417
0.71363765-0.971533060.905654250.044745445-0.08471258
-0.0448671650.022753961-0.248333330.24752659-0.28497577
-0.328561870.172857970.011742890.047395173-0.08058154
0.22208467-0.8160555-0.563143550.0338935670.6029692
0.6342639-0.70512974-0.80922330.389990660.069206215

0.453151050.0499423670.93896870.027821586-0.9849263
-0.217943950.23396140.13706076-0.40718186-0.37034318
-0.5494419-0.1021308450.54235610.49220613-0.14307027
0.58719873-0.022282902-0.07921025-0.46272108-0.12195832
0.344908860.05196723-0.339062570.0790670.065714754
0.0042898683-0.24645531-0.14233568-0.61108650.28545088

0.7970827-0.10968570.18540466-0.0174293520.04808236
0.194107890.485732080.45060676-0.26450220.2727475
-0.7680911-0.4574508-0.49528393-0.41802055-0.5545326
-0.05616972-0.00493328230.230955780.853398260.086467095
0.226463590.49858356-0.7149629-0.280567380.21268316
-0.487944070.27823895-0.1906499-0.04953446-0.54687935

-1.0469517-0.0771403240.23193793-0.184351120.23932606
-0.053632844-0.8816459-0.6689355-0.821150840.081937164
-0.431578040.025880126-0.45560315-0.2526525-0.14508171
-0.17631331-0.8212875-0.570440230.0644872040.32868293
0.3642364-0.49931258-0.230763910.34407166-1.0652378
0.31001136-0.22356468-0.0959366860.23001784-0.19392867

0.36937931.0734570.5645604-0.057767270.44514838
-0.06437789-0.179801510.195828350.05413274-0.07067942
0.24700463-0.12837961-0.23125258-0.12763852-0.6029982
-0.11315082-0.49516633-0.62364510.12419675-0.08358603
-0.0327850170.52009904-0.329754320.25539178-0.07644823
0.183960470.9414518-0.16081446-0.16561934-0.1367012

0.0162023470.2200970.34257580.0733347460.1797835
-0.030282987-0.3119660.74246120.096542045-0.001874432
0.33079870.526864950.172432290.2952231-0.052110355
-0.164019840.10791649-0.172968270.07387158-0.22846958
-0.38157535-0.2024583-0.03490433-0.169836480.21523441
0.41381085-0.0479334070.18986689-0.1213489850.22112994

-0.09928642-0.32128320.6789695-0.14863710.71411246
-0.46561820.337224360.593261360.012208289-0.31196135
-0.652964350.071598070.041355870.28849283-0.40746704
-0.056169720.2350570.230955780.853398260.086467095
0.466336730.236773390.53499770.64782910.116509266
-0.33434448-0.4641587-0.10993115-0.3005782-0.1613093

0.390391770.22557002-0.643976330.666798-0.5841877
-0.26075290.62178624-0.0500124540.03681460.2587438
-0.539705340.118621560.142344770.30406538-0.051888667
-0.43026868-0.63396590.662260530.53831270.12968613
-0.151614140.96517210.099893615-0.29801750.27238068
0.183960470.52234180.07856431-0.16561934-0.1367012

0.284868961.0287563-0.06445303-0.0511569230.21558373
0.3002848-0.032579450.77736217-0.320132260.16168216
-0.1171346460.17590714-0.704233-0.039370730.05470804
0.013708360.16681251-0.622178550.3980024-0.3793438
0.0898382440.22602464-0.33820890.16297330.21587142
-0.83209470.0532643980.016999278-0.57895637-0.48211935

-0.11385976-0.1428827-0.38281626-0.43794554-0.66614914
0.47376030.2787029-0.35795210.12080559-0.6168287
0.45377220.40431374-0.18476075-0.43710166-0.2491667
-0.12301095-0.17032099-0.14564080.60697997-0.29768905
-0.248888760.15669891-0.49729308-1.14804590.0023042886
0.192010020.82683927-0.199288670.2532747-0.05237846

0.13889293-1.15938770.224605720.48217428-0.34577405
0.352984130.58580220.21767792-0.073237850.23309946
-0.65296435-0.07741736-0.21506287-0.0077804965-0.40746704
-0.05616972-0.00493328230.230955780.853398260.086467095
0.226463590.49858356-0.7149629-0.280567380.21268316
-0.487944070.27823895-0.1906499-0.04953446-0.36649245

-0.09928642-0.32128320.589995860.018224940.71411246
0.71363765-0.971533060.905654250.044745445-0.08471258
-0.0448671650.022753961-0.248333330.015735075-0.28497577
-0.328561870.17285797-0.284022660.047395173-0.08058154
0.22208467-0.8160555-0.563143550.0338935670.6029692
0.6342639-0.70512974-0.80922330.389990660.069206215

-0.09928642-0.32128320.58999586-0.14863710.71411246
-0.17044413-0.6990923-0.13563226-0.60855790.50573426
-0.280081750.42771770.571568850.6676783-0.31289765
-0.279279950.44928110.470790150.123100810.60336226
0.171019930.236773390.53499770.64782910.116509266
-0.533913-0.164498370.054539910.46136037-0.7155995

0.7180219-0.174520030.025871685-0.36969367-0.5936485
-0.959216060.05578563-0.632090870.20705576-0.16552179
0.10029839-0.312758120.139066550.17056549-0.47401494
0.467660580.122523144-0.059535194-0.9859874-0.20904031
0.649592340.038859203-0.187023160.12740617-0.5933828
-0.060566510.049128618-0.61806935-0.16495620.3216439

0.453151050.0499423670.93896870.027821586-0.9849263
0.075900210.41128430.197028491.35316230.37137178
0.425466120.64691275-0.011187248-0.39708194-0.67663956
-0.168940440.66949750.186855350.39153870.32539663
0.28557703-0.32103345-0.19406377-0.121568170.47729078
0.13979343-0.47392710.13206013-0.184327260.17081903

0.4246228-0.518237771.1390374-0.31565452-0.6859474
0.15596542-0.124187425-0.250460860.55428270.11756278
-0.70548964-0.71283760.29889010.240092890.58613265
0.5236738-0.42915220.440470250.367418860.29180288
-0.58060031.0096384-0.433248430.313778850.07807385
-0.0409156-0.53066850.1098889040.072623335-0.016627628

0.83029520.7165701-0.340721220.5639402-0.15162177
0.352984130.58580220.21767792-0.073237850.23309946
0.10534528-0.032685526-0.187102210.214829040.5216643
0.5379532-0.265444930.25381523-0.43605226-0.23352997
-0.15651591-0.558076860.07515190.087060240.1373638
0.396989940.26083317-0.284359570.38373813-0.21494731

-0.6023394-0.28328073-0.64551187-0.77882904-0.7033875
0.017635375-0.393302080.267740040.18965390.022216352
-0.49462720.510241270.43164137-0.17137599-0.27994627
-0.17631331-0.8212875-0.570440230.0644872040.52372944
0.79586726-0.174301340.285568540.22901532-0.58469355
-0.323171470.25881273-0.42827925-0.06704340.0814638

0.71883110.5390903-0.3140066-0.5632224-0.11704615
-0.1761643-0.57095826-0.108138430.287413540.3838433
0.061615348-0.2698065-0.031885721.1699259-0.46657708
0.5143801-0.30995320.49244654-0.38059023-1.054218
0.376518340.07604217-0.19506416-0.50290130.35906273
-0.323171470.25881273-0.42827925-0.06704340.0814638

-1.0469517-0.222046170.23193793-0.184351120.23932606
-0.053632844-0.8816459-0.6689355-0.821150840.081937164
-0.09899514-0.711723860.11474317-1.23801950.062433302
-0.29774840.33758947-0.5840012-0.63535166-0.22148424
-0.55340790.152132990.299044040.62324020.23961493
-0.533913-0.164498370.0375099030.02208503-0.7155995

0.619341250.51618296-0.124209530.5149630.112817615
-0.85050990.403476330.12495187-0.58701634-0.32104272
0.075227216-0.247184080.505583-0.0142413080.73589045
-0.247721880.367075230.09689553-0.442866680.025491571
-0.6236357-0.204839270.14435650.057777833-0.44405296
-0.0351114460.0163066070.53791744-0.62470055-0.4997028

0.0162023470.2200970.34257580.0733347460.1797835
0.194107890.485732080.055057254-0.26450220.2727475
-0.445734680.37925833-0.38229725-0.262056620.35339236
-0.345480170.094494020.175599930.15637082-0.26552197
-0.112298-0.240132640.025204685-0.0242381110.43071234
-0.88385135-0.248192640.43470958-0.65795260.6623417

-0.335991230.1039426-0.69903105-0.534785150.69934654
-0.71060310.337224360.593261360.012208289-0.31196135
-0.0448671650.022753961-0.248333330.24752659-0.28497577
-0.093159320.66959070.6713187-0.204207240.37139988
0.3205095-0.0693946-0.096920915-0.115905880.15642737
0.1762766-0.016156888-0.206128390.16960281-0.4065007

-0.6803304-0.155014040.312169820.4051536-0.66529834
-0.99420770.126335840.18169981-0.323702450.6337559
0.425466120.64691275-0.35204586-0.21449536-0.67663956
-0.05616972-0.00493328230.230955780.853398260.14328162
-0.097183320.49858356-0.7149629-0.280567380.21268316
-0.487944070.27823895-0.1906499-0.04953446-0.54687935

0.18427649-0.187385950.53035814-0.31134040.20152704
-0.99420770.126335840.18169981-0.323702450.6337559
0.425466120.64691275-0.011187248-0.39708194-0.5919237
-0.118299470.3088312-0.47385445-0.1434131.0065578
-0.67741430.691935960.79992440.05863359-0.08657545
0.35520270.323253480.369144830.16610055-0.5539094

-0.300873070.423522680.09574504-0.39998794-0.31784484
-0.44506580.22038285-0.8224795-0.41557857-0.614866
-0.0402044770.113861140.172232390.98448350.36559778
0.20390505-0.131953050.70311150.43011335-0.31190088
0.426009060.0677115250.292925540.57592046-0.055739645
0.50345490.57315760.319291740.0243801340.4929792

-0.0106004765-0.9951423-1.3073533-0.22915982-0.15781203
0.19062760.0189302470.77736217-0.320132260.16168216
-0.057139910.25381815-0.809888060.345516150.5000354
-0.51400440.100281090.02920445-0.16964269-0.3371052
-0.4754120.24881080.578863560.42081276-0.17409617
0.06754160.369787340.0372770730.473724660.43613565

-0.0106004765-0.9951423-1.3073533-0.22915982-0.15781203
0.19062760.0189302470.77736217-0.320132260.16168216
0.28971870.17590714-0.7042330.65926780.05470804
-0.063776515-0.7459318-0.22697453-0.25858408-0.29639286
0.2710086-0.6204682-0.2337716-0.30110988-0.5158761
-0.195430190.057868548-0.366997570.24615005-0.5956623

0.30201298-0.49581080.007420540.139308870.42016998
0.08233762-0.47673723-0.941118960.203920250.22305052
0.0018166824-0.46430240.41784084-0.10497994-0.4751069
0.0910855160.1706889-0.0302489080.352713820.31037918
0.158299640.54231280.75040410.0453210770.11164439
0.49416244-0.4266715-0.151385140.059380993-0.07224154

-0.13461624-0.75777880.049770540.52986910.6563517
-0.11454547-0.60549290.101505145-0.226663110.6416852
-0.301447240.201223150.389291670.58325170.9538876
0.208771420.18342158-0.31248480.864366530.05128428
0.5930230.0240159130.08441588-0.25031757-0.5307718
0.0423473380.25129282-0.25811622-0.0362650.030179799

0.42987895-0.167277370.101435910.595921160.23863524
-0.112741515-0.147939560.0616274550.6005170.074089006
-0.7665366-0.16919713-0.049135850.56070610.5254699
-0.18573359-0.166177420.429682-0.17773832-0.7916642
-0.21412587-0.041874096-0.96322060.17298888-0.56864357
-0.012916009-0.9659169-0.42118916-0.66183790.089176364

0.297264130.39934280.0508082430.103591960.17753558
0.30558056-0.51536036-0.4730432-0.70135190.107072696
-0.69846255-0.04248136-0.093109556-0.5634823-0.15112293
-0.25611620.095685355-1.1010433-0.0098353870.57747984
-0.05833967-0.51013940.43665484-0.045035170.020041488
-0.323171470.25881273-0.42827925-0.0670434-0.029965498

0.7180219-0.243486820.103799485-0.36969367-0.5936485
-0.50173780.403476330.27273047-0.58701634-0.32104272
0.050590765-0.204441010.069411440.840009-0.58918476
-0.546708050.31116570.0522569051.2001671-0.3578047
-0.2628786-0.44910696-0.7470347-0.69334240.49348998
-0.012916009-0.9659169-0.42118916-0.66183790.015433647

0.36013088-0.220507130.57069606-0.096735220.13011315
0.467831020.070799460.10463910.05098195-0.4938079
0.13723050.33455947-0.099303655-1.142990.16454455
0.33114687-0.131971330.066666506-0.75476410.24002676
-0.4393013-0.37867522-0.404172930.5385961-0.37412533
-0.17142788-0.74496140.173470880.094995830.30418217

0.3462953-0.167277370.101435910.595921160.23863524
-0.112741515-0.14793956-0.04715720.6005170.074089006
-0.7665366-0.16919713-0.049135850.56070610.11626857
-0.18573359-0.166177420.429682-0.17773832-0.7916642
0.13159205-0.27706462-0.3317070.093827054-0.4655733
0.011970754-0.0058089540.469736960.080374904-0.16307358

0.32037085-0.441644340.7912798-0.158659030.16992824
0.40955263-0.37544566-0.69842860.07575305-0.53630507
0.39246430.0584753860.4424047-0.39937946-0.32546556
-0.175838440.236823130.8714908-0.40316087-0.100990385
0.28557703-0.321033450.33821446-0.121568170.47729078
0.13979343-0.47392710.13206013-0.184327260.17081903

0.4206797-0.11124432-0.014176923-0.12206082-0.31762782
0.5970120.135056510.23623328-0.5264926-0.06221651
-0.49462720.510241270.43164137-0.17137599-0.27994627
0.195822430.3088312-0.4623025-0.13268481.0065578
-0.4141431-0.41514006-0.289305930.24323246-0.7747591
-0.88385135-0.248192640.43470958-0.65795260.6623417

-0.249625370.19421405-0.30203950.068724050.35961002
0.26405546-0.096931204-0.62936580.59277153-0.06180655
-0.301447240.201223150.0211797950.58325170.9538876
0.208771420.18342158-0.31248480.841315270.05128428
-0.27447358-0.51013940.4681476-0.045035170.020041488
0.70824397-0.0351766050.050392594-0.21655570.2221591

0.30201298-0.49581080.2657186-0.095212110.42016998
0.54699710.624757470.1676717-0.4086102-0.3258314
0.1642214-0.26620775-0.335011570.381411520.17821032
0.068935880.024543572-0.15324953-0.42608580.17464058
-0.14698097-0.60755473-0.0295519230.403410940.1017604
0.40007892-0.41068260.00584887530.4099651-0.11028075

0.0325519780.16205270.315491680.170565620.67883706
-0.0637190.42065550.2089137-0.47614920.6257647
0.60654640.10472430.9443275-0.94527555-0.081055105
0.467660580.122523144-0.059535194-0.9859874-0.20904031
0.0102854970.31556060.1798568-0.110453516-0.68177617
-0.50917040.208551470.086233470.027225510.4559214

0.42067970.18682766-0.014176923-0.12206082-0.5800327
0.27439840.125367060.23623328-0.5264926-0.06221651
0.58573616-0.6170913-0.030200763-0.21705034-0.12820688
-0.290407720.377071830.17033419-0.041620206-0.06225227
-0.21248877-0.09737534-0.237393-0.161525860.75400054
0.1597221-0.22266357-0.00320552570.335533380.17701553

-0.150408130.234432440.43031585-0.478140230.2809723
-0.0637190.42065550.2089137-0.47614920.6257647
0.60654640.10472430.25013348-0.94527555-0.081055105
0.29955831.07661410.334614960.116898140.5861229
0.0252109770.3583143-0.341062930.33613303-0.30728054
0.6568232-0.4870215-0.00529930830.616634370.02996781

-0.869755740.50896996-0.3083642-0.436381670.27037925
-0.48482670.53462190.55879766-0.31139870.07125175
0.67551196-0.33387744-0.56595796-0.884932640.0179026
-0.43214375-0.516081630.41379870.237666220.17026079
-0.4141431-0.41514006-0.289305930.24323246-0.7309093
-0.88385135-0.248192640.43470958-0.60497650.6623417

0.18427649-0.187385950.53035814-0.31134040.20152704
-0.99420770.126335840.18169981-0.323702450.6337559
-0.162082720.142999680.193433520.05490597-0.28656414
-0.31896370.84779890.0272368830.31302255-1.0498481
-0.208232130.024002004-0.64603245-0.04177035-0.42040995
-0.13983870.0118608960.206688880.0978348260.8943398

-0.232865270.50949940.440297130.0487736-0.15125017
0.1398199-0.3475518-0.324986520.0470521450.08538196
-0.15287547-0.2414208-0.161684470.09336060.13727842
-0.228378420.053419996-0.773360970.038645230.6144739
-0.21412587-0.041874096-0.727188650.2126864-0.56864357
0.0817877950.26083317-0.284359570.38373813-0.21494731

0.66188383-0.220507130.57069606-0.096735220.13011315
0.0996495040.54235750.6161897-0.69156986-0.2681873
0.099029660.3240735-0.33782572-0.49156424-0.5915642
-0.0214560030.50553890.0365706940.23657851-0.44313812
-0.18074529-0.11814486-0.41478795-0.2867698-0.5876384
-0.18500990.84924275-0.24532618-0.044657458-1.061102

0.133675050.30543286-0.46383607-0.67911790.11475896
-0.46727510.7262146-0.28729940.54947770.41745552
-0.12124353-0.24165884-0.322694330.96644940.1510665
-0.524244370.30230430.339960340.43878590.13475625
0.09486531-0.019418998-0.154745740.057189650.21329929
-0.035111446-0.123716960.53791744-0.62470055-0.4997028

0.23657441-0.104216196-0.462048650.41040775-0.1961405
0.82077950.10565061-0.12760867-0.232105760.17119423
-0.23241933-0.137163920.005581421-0.131879990.8443729
0.010567196-0.3635931-0.382863880.608326440.32971764
0.102377010.110202970.013917178-0.12626064-0.27798152
0.5790271-0.044901240.016622577-0.3381802-0.117014095

0.4705303-0.374846370.5868654-0.283229740.8474595
-0.05215905-0.3058615-0.15677930.69947450.50442433
-0.06845276-0.26068598-0.21471567-0.58633006-0.28012887
0.5236738-0.42915220.67479610.367418860.29180288
0.376518340.07604217-0.19506416-0.50290130.35906273
-0.323171470.25881273-0.42827925-0.06704340.0814638

0.15221043-0.16189897-0.151892750.678266940.47737458
0.47376030.2787029-0.35795210.3598811-0.6168287
0.631365060.032502867-0.83153220.41471282-0.33506817
-0.210531680.14924832-0.595787170.434066830.87102306
-0.9215075-0.0246602040.475306930.5900512-0.27801022
0.422421750.44254628-0.573530.91237205-0.66538364

-0.13461624-0.75777880.049770540.52986910.6563517
-0.11454547-0.60549290.101505145-0.226663110.6416852
0.0846362040.66043620.16719607-0.09522917-0.41965374
-0.328561870.17285797-0.284022660.047395173-0.08058154
0.22208467-0.8160555-0.563143550.147365690.6029692
0.6342639-0.70512974-0.80922330.389990660.069206215

0.221177090.53639054-0.1615289-0.5192398-0.40952966
-0.17044413-0.6990923-0.13563226-0.60855790.48103082
-0.21320198-0.51986134-1.0910037-0.450001660.34208256
-0.0132382320.51289225-0.0490631130.333243970.5140895
0.7100024-0.73628770.36458260.35421920.36352962
1.04106180.44489217-0.9441480.9588809-0.30709034

0.30734327-0.17124724-0.271214160.11690357-0.5809237
0.075900210.41128430.357219221.2716910.37137178
-0.05107925-0.580779430.306364831.01486060.124181665
-0.43026868-0.63396590.662260530.53831270.12968613
0.138634250.152138010.20515873-0.1022098660.2697979
-0.50891054-0.25705636-0.37635872-0.49470390.09761045

-0.11385976-0.1428827-0.38281626-0.43794554-0.66614914
0.011408607-0.4825295-0.045642376-0.57795817-0.15088743
0.100196384-0.576255140.43777728-0.7371963-0.25361553
0.29939535-0.02786240.32193303-0.45328125-0.49554846
-0.55886114-0.9786574-0.4071038-0.0789678-0.1550584
0.06895351-0.329481540.23368506-0.180731940.018002542

-0.031074166-0.028926276-0.36870083-0.080196760.5821564
0.40955263-0.37544566-0.6984286-0.0025878586-0.2336521
0.39246430.0584753860.4424047-0.39937946-0.32546556
-0.42723727-0.021191683-0.18726127-0.129204260.25986442
0.631883440.038859203-0.187023160.12740617-0.5933828
-0.30096143-0.376679030.791756150.0593824760.14260153

0.237533850.090893894-0.148807970.13846438-0.08709072
0.1398199-0.3475518-0.308479580.0470521450.08538196
-0.301447240.201223150.135319770.58325170.9538876
0.208771420.18342158-0.31248480.841315270.05128428
-0.27447358-0.51013940.43665484-0.045035170.19401032
1.13574980.259262080.4960345-0.073169750.22340328

0.83029520.7165701-0.340721220.5639402-0.15162177
0.352984130.58580220.21767792-0.073237850.23309946
-0.0402044770.113861140.611086370.415467530.10093467
0.70275820.08171351-0.20115642-0.196813-0.23931457
0.79586726-0.174301340.285568540.22901532-0.58469355
-0.323171470.25881273-0.42827925-0.558453740.0814638

-1.0469517-0.0771403240.23193793-0.184351120.23932606
-0.053632844-0.8816459-0.552297-0.821150840.081937164
-0.652964350.071598070.04135587-0.0077804965-0.40746704
-0.056169720.2350570.230955780.853398260.086467095
-0.492646750.0495668840.14435650.057777833-0.44405296
-0.4095771-0.262623160.181407730.39928678-0.043586493

0.7180219-0.174520030.025871685-0.39268956-0.5936485
-0.217943950.23396140.13706076-0.40718186-0.37034318
-0.5494419-0.1021308450.54235610.49220613-0.14307027
0.621637050.21921021-0.20115642-0.196813-0.23931457
-0.4835823-0.774419840.81931180.45800110.15224455
-0.398027180.46599534-0.5707880.3951243-0.689732

0.4705303-0.51972110.5868654-0.23699870.8474595
-0.05215905-0.3058615-0.15677930.69947450.50442433
-0.301447240.201223150.389291670.58325170.9538876
0.208771420.18342158-0.363849520.864366530.05128428
0.5930230.0240159130.30314225-0.25031757-0.5307718
0.0423473380.25129282-0.25811622-0.0362650.17527118

-0.0176870040.075396284-0.320196030.0961735840.07614139
0.1063481940.629326340.510679-0.868854050.70096564
-0.65296435-0.07741736-0.215062870.11782289-0.40746704
-0.05616972-0.00493328230.230955780.853398260.14328162
0.226463590.49858356-0.7149629-0.280567380.21268316
-0.487944070.27823895-0.1906499-0.04953446-0.54687935

0.053681333-0.496613620.0615237880.414197980.11187056
0.228201940.31883907-0.179718580.0618539150.23965095
0.243478670.194104970.0561948340.83436790.21377638
0.467660580.122523144-0.059535194-0.9859874-0.20904031
0.3693181-0.6695173-0.28145623-0.390069630.23050429
-0.169590860.625671450.248427150.125881050.018280346

-1.0110894-0.48307642-0.3201158-0.89928940.5051222
0.5038838-0.03177420.55504775-0.463765920.33594483
-0.73462840.510241270.43164137-0.17137599-0.27994627
-0.17631331-0.8212875-0.57044023-0.16801230.52372944
-0.492646750.0495668840.14435650.18361971-0.44405296
0.77788070.20193875-0.187314260.14325637-0.62958574

0.453151050.0499423670.93896870.027821586-0.9849263
0.075900210.41128430.197028491.35316230.37137178
0.047060564-0.75387985-0.58230895-0.44988660.14912508
-0.42803493-0.247865440.14216019-0.14440680.7175385
-0.20441407-0.249044220.48107070.328526560.6872771
0.16332120.46599534-0.5707880.3951243-0.689732

-0.493818580.17852433-0.1099478160.5070009-0.0129749505
-0.09394602-0.047460813-0.020675728-0.32225013-0.35489157
0.22123581-0.33387744-0.47733995-0.884932640.0179026
-0.20069897-0.131953050.35242250.43011335-0.31190088
0.1167245-0.318688450.5885486-0.42621640.61629874
-0.5653286-0.0241182-0.036685370.31663930.59790826

-0.2482954-0.367946830.071936870.65022620.0901114
0.1398199-0.3475518-0.308479580.0470521450.08538196
0.13723050.33455947-0.099303655-1.142990.16454455
-0.459106680.86349916-0.131430730.03292201-0.5396892
-0.39680450.66569036-0.100123376-0.63733240.29911777
0.196025460.20226870.13534941-0.07872119-0.3245312

-0.300873070.436170280.09574504-0.39998794-0.31784484
0.33318520.225920270.63264054-0.532557670.46146172
-0.12899236-0.414619740.6714739-0.34636423-0.6596252
-0.31851410.07422018-0.294378580.40894905-0.6932385
-0.67741431.00515560.79992440.05863359-0.08657545
0.246896-0.074593835-0.11001494-0.167327020.18095855

0.8285938-0.087996240.0074513490.10320208-0.049261678
-0.106245680.12503679-0.27182227-0.14273866-0.073893666
0.6036216-0.318836570.47993913-0.22584136-0.81403774
0.261512130.204141570.27982860.048014343-0.25805202
0.0252109770.3583143-0.341062930.33613303-0.30728054
0.6568232-0.4870215-0.00529930830.616634370.02996781

-0.52560264-0.446959580.06404711-0.06630873-0.1921201
0.350632550.20078376-1.19007440.055849597-0.06435663
0.19167419-0.009721228-0.25471464-0.15912142-0.22518767
0.278135480.21998006-0.0547262770.27026367-0.7008121
-0.111161570.38255295-1.12599750.016951140.42591676
0.396989940.26083317-0.214858930.38373813-0.21494731

0.4705303-0.51972110.5868654-0.23699870.8474595
-0.05215905-0.3058615-0.15677930.69947450.50442433
0.425466120.64691275-0.011187248-0.39708194-0.5919237
-0.546708050.31116570.0522569051.2001671-0.3578047
-0.199301350.31556060.1798568-0.28901863-0.68177617
0.40007892-0.41068260.00584887530.4099651-0.11028075

-0.249625370.19421405-0.30203950.068724050.35961002
0.26405546-0.096931204-0.614858270.59277153-0.06180655
-0.95656836-0.517275630.19990139-0.0132975260.66156024
-0.31851410.07422018-0.294378580.40894905-0.6932385
-0.72356975-0.33751976-0.55793864-0.50370640.23225541
-0.0032328488-0.62534310.21766312-0.24871941-0.111021765

0.71883110.5390903-0.3140066-0.5632224-0.11704615
0.595881640.391209540.16953053-0.19001186-0.5796136
0.053523436-0.33387744-0.56595796-1.10120250.0179026
-0.3036421-0.516081630.41379870.237666220.17026079
0.171019930.236773390.53499770.6478291-0.04398603
-0.4095771-0.262623160.207139220.39928678-0.043586493

0.273884830.36222148-0.03450266-0.305549060.5677233
-0.50173780.403476330.27273047-0.58701634-0.098279536
0.050590765-0.204441010.069411440.66855264-0.58918476
-0.46902323-0.63566643-0.509163861.0052961-0.29675844
0.29469132-0.50939-0.24032682-0.357709440.21630579
-0.15472788-0.14896685-0.3249091-1.00229840.2702925

-0.232865270.86746780.553169250.0487736-0.15125017
0.71363765-0.971533060.905654250.044745445-0.08471258
-0.0448671650.022753961-0.248333330.24752659-0.28497577
-0.96851480.11210519-0.20196672-0.0689640051.019173
-0.58046860.09019822-0.13957922-0.117087975-0.05485595
-0.323171470.25881273-0.42827925-0.0670434-0.029965498

0.06864309-0.6947235-0.34286553-0.86532690.055289645
0.54699710.624757470.1676717-0.4086102-0.3258314
-0.19009903-0.26620775-0.335011570.179391950.17821032
0.068935880.024543572-0.15324953-0.42608580.17464058
-0.492360470.665690360.08954477-0.63733240.023720622
0.70824397-0.0351766050.050392594-0.21655570.2221591

-0.493818580.17852433-0.1099478160.5070009-0.0129749505
-0.0637190.42065550.2089137-0.47614920.6257647
0.60654640.10472430.41525686-0.94527555-0.081055105
-0.050923288-0.555039-0.47137424-0.08024327-0.31110907
0.07330984-0.180390920.54081476-0.11376893-0.095608436
-0.17182103-0.14696406-0.371147870.1035515-0.30850208

0.71311960.36247060.279312460.07620384-0.39521396
0.15131323-0.233260930.12788537-0.48710263-0.29287228
0.22123581-0.33387744-0.56595796-0.884932640.0179026
-0.703404-0.18266091-0.852280260.107100666-0.113310196
0.287747560.0113616870.555877570.29501188-0.38735068
-0.162825720.10029945-1.0289185-0.1721821-0.78538287

-0.07661435-0.0904865340.167382910.360606070.550131
0.71363765-0.971533060.905654250.044745445-0.08471258
0.54120845-0.4491818-0.15162238-0.140326170.060212348
0.17340602-0.0595067930.54943156-0.16521788-0.61688876
-0.150559920.35042850.599428240.729228440.17997298
0.08460096-0.22913842-0.60587150.16501370.24047235

0.7970827-0.10968570.18540466-0.0174293520.04808236
-0.472177330.233735370.50323820.32322627-0.06751571
0.45413312-0.71476495-0.419989320.49888828-0.19002739
0.65917740.0072025650.11330106-0.0137783840.31397143
0.704231140.0675293360.4646578-0.0334640070.15408374
0.1656070.0125098150.275635240.19622442-0.40447116

0.390391770.22557002-0.643976330.666798-0.5841877
-0.05278120.621786240.153559330.03681460.2587438
-0.141084670.118621560.142344770.30406538-0.051888667
-0.43026868-0.63396590.662260530.408588170.12968613
-0.208232130.024002004-0.9340779-0.04177035-1.1730917
-0.49670570.11715829-0.80244213-0.0235112310.15700696

0.0491677450.10386261-0.06616462-0.13458656-0.41757143
-0.48482670.615981460.55879766-0.40918990.07125175
0.22123581-0.33387744-0.56595796-0.884932640.0179026
-0.86452260.030088320.18374267-0.0644335-0.28335837
0.79586726-0.174301340.285568540.22901532-0.22654882
-0.323171470.120927006-0.42827925-0.06704340.0814638

0.175890560.044892352-0.58439690.283938560.2833089
0.06313304-0.12327956-0.011417407-0.018191963-0.15659958
-0.19425534-0.61463654-0.830907050.171973480.38719025
-0.23688231-0.66725390.233130840.420448480.35683987
-0.112298-0.240132640.13886717-0.0242381110.43071234
0.13979343-0.47392710.13206013-0.184327260.17081903

-0.335991230.1039426-0.69903105-0.534785150.69934654
-0.46561820.52761870.593261360.012208289-0.31196135
-0.49462720.510241270.43164137-0.17137599-0.27994627
-0.43214375-0.63274670.41379870.237666220.17026079
-0.07765782-0.3941177-0.8654746-0.593647660.20701003
-0.63789076-0.22980420.7032474-0.10216107-0.30607763

0.35196275-0.23304348-0.629571140.213071350.5049964
0.122121416-0.4761501-0.23598390.6725556-0.15635912
0.28846565-0.21129462-0.799409570.193600310.20537816
-0.11551554-0.70767516-0.6023187-0.202301680.45388693
-0.039820060.678483250.35497868-0.549667840.12149208
0.196514620.036280950.6723552-0.2731727-0.9519337

0.29135840.5373686-0.516738650.0056693824-0.09735681
-0.172184270.51273155-0.284315740.049294710.51076865
-0.301447240.201223150.389291670.58325170.9538876
-0.43026868-0.63396590.662260530.53831270.12968613
-0.208232130.024002004-0.9340779-0.04177035-0.838798
-0.13983870.315139380.206688880.581034240.8333113

0.29135840.5373686-0.516738650.0056693824-0.09735681
-0.172184270.51273155-0.284315740.049294710.51076865
-0.301447240.201223150.80829260.58325170.9538876
0.33114687-0.199938820.066666506-0.75476410.15741278
0.220639850.60272280.23376057-0.5838199-0.29404226
0.4806523-0.15226546-0.35875404-0.451305030.124132484

-0.493818580.17852433-0.1099478160.5070009-0.0129749505
-0.06437789-0.179801510.501036170.49567306-0.07067942
0.24700463-0.44797534-0.23125258-0.12763852-0.6029982
-0.11315082-0.49516633-0.62364510.12419675-0.08358603
-0.0327850170.52009904-0.329754320.25539178-0.07644823
0.183960471.05212760.07856431-0.16561934-0.1367012

-0.241957680.70479450.08122214-0.33753493-0.365014
0.467831020.070799460.10463910.05098195-0.4938079
0.80007386-0.6224462-0.48154611.0044386-0.18561223
-0.658224050.2813442-0.6490413-0.17479135-0.09761069
-0.4393013-0.37867522-0.404172930.72975385-0.37412533
-0.105544420.375577420.0855378060.68081546-0.85463464

0.112942640.052239057-0.010440345-1.0168749-0.0860747
0.072595224-0.62313230.280679050.7243595-0.13542357
-0.320908220.3545541-0.18883250.2694448-0.25342664
-0.57595485-0.232403220.07218003-0.407479880.48956683
0.79586726-0.174301340.285568540.22901532-0.58469355
0.0567313470.480085160.17395711-0.165923940.05574837

-0.095772594-0.287806540.47183007-0.23078214-0.2737112
-0.112741515-0.147939560.0616274550.6005170.074089006
0.5719939-0.224781870.24840972-0.6537855-0.58659506
0.3851327-0.7105428-0.18472183-0.770336450.43951824
-0.096223325-0.062031360.068074480.24726390.93572676
0.148753210.445235851.1074286-0.53020540.10116426

-0.232865270.57132330.553169250.0487736-0.15125017
0.19765633-0.406038281.2528255-0.47624978-0.118618354
0.6362041-0.654549840.287511080.43973055-0.5070183
0.044545706-0.2555578-0.31495565-0.213793-0.6240037
-0.462307480.054867636-0.0600571220.37405476-0.5138235
-0.0534752050.15541388-0.132909720.083436940.3449259

0.175890560.088083394-0.58439690.226649940.2833089
0.20573723-0.12327956-0.011417407-0.0181919630.0026760083
0.00375922890.0151726530.22977872-0.6325738-0.046036497
0.015784790.106412660.653676750.587757230.07081805
-0.089181475-0.475777420.40083620.581383760.4970046
0.4764087-0.566587270.6499915-0.25535598-1.1535802

0.032551978-0.00376732650.315491680.170565620.67883706
-0.0637190.42065550.2089137-0.47614920.6257647
0.60654640.10472430.25013348-0.94527555-0.081055105
-0.39353734-0.247865440.142160190.0606252250.7175385
-0.29958308-0.209367080.48107070.328526560.6872771
-0.32401020.5959384-0.03042603-0.34180063-0.11122265

0.30419865-0.23304348-0.648728430.213071350.24935044
0.209337280.468230370.01443960050.5667523-0.03882606
0.105345280.16260165-0.187102210.214829040.5216643
0.5143801-0.019985050.49244654-0.60373545-0.5880835
-0.28452050.38255295-0.849027040.016951140.42591676
0.27354434-0.24424453-0.14350395-0.5581522-0.20814598

0.30201298-0.49581080.0334790350.139308870.42016998
0.08233762-0.47673723-0.941118960.318986480.22305052
0.48838043-0.4376126-0.1922554-0.6227006-0.39988345
0.55274934-0.213197870.48776870.073047170.35919556
-0.101016946-0.429889050.52453530.148798930.14230026
-0.0042994986-0.381355520.0928160250.09080260.27610368

0.054010548-0.4109084-0.24309610.152860690.6387114
-0.172184270.51273155-0.284315740.049294710.51076865
-0.301447240.201223150.389291670.58325170.9538876
0.208771420.18342158-0.31248480.864366530.05128428
0.5930230.0240159130.30314225-0.25031757-0.5307718
0.0423473380.25129282-0.25811622-0.544635650.030179799

-0.0106004765-0.9951423-1.3073533-0.22915982-0.15781203
0.19062760.0189302470.777362170.148056480.16168216
0.28971870.17590714-0.7042330.65926780.05470804
-0.32856187-0.18177602-0.284022660.047395173-0.44800577
-0.223838540.066035220.0398132470.0810024-0.12511525
0.087049620.15602967-0.14127527-0.1028027460.6982229

0.0491677450.10386261-0.06616462-0.13458656-0.41757143
-0.030282987-0.3119660.74246120.096542045-0.001874432
0.33079870.526864950.172432290.2952231-0.052110355
-0.219719720.16883159-0.3060612-0.46803012-0.5433298
-0.33632553-0.196461360.163532210.5677639-0.0055628936
0.48100883-0.22266357-0.00320552570.335533380.17701553

-0.13461624-0.75777880.04977054-0.0300599930.6563517
0.44156647-0.342295080.213401230.281829450.16268313
0.235453740.1191860440.11957330.46767285-0.52727735
-1.0597217-0.034226015-0.21365103-0.2510716-0.33472648
-0.6089972-0.2088220.172867920.52438230.08236235
0.16303335-0.012990631-0.9213378-0.015498504-0.78538287

-0.150408130.234432440.43031585-0.478140230.2809723
-0.35734087-0.1097110140.6749732-0.20184470.1061278
0.16813284-0.12006638-0.18645470.5281463-0.6146775
0.89090717-0.202259690.20656611-0.258518820.09661874
0.299449320.58795935-0.13289967-0.12596346-0.15591542
0.44648653-0.47845715-0.0279628880.33437186-0.02507049

-0.23942670.195136310.392478620.616384150.39166823
-0.1761643-0.49262166-0.108138430.287413540.3838433
0.061615348-0.2698065-0.031885721.1699259-0.46657708
0.5143801-0.30995320.23766875-0.025317848-1.054218
0.376518340.07604217-0.19506416-0.50290130.35906273
-0.398027180.46599534-0.632749860.23539628-0.689732

-0.09928642-0.32128320.58999586-0.14863710.71411246
-0.46561820.337224360.593261360.012208289-0.31196135
-0.652964350.071598070.0906076-0.0077804965-0.40746704
-0.056169720.2350570.230955780.853398260.086467095
-0.29958308-0.249044220.546705960.328526560.6872771
-0.17182103-0.14696406-0.371147870.1035515-0.30850208

0.284868961.0287563-0.06445303-0.0511569230.21558373
-0.401167480.638557140.722654040.6105938-0.12669432
-0.15298022-0.80073637-0.153828260.507721660.5430119
-0.345480170.094494020.101399930.38470903-0.28304675
-0.089181475-0.475777420.40083620.581383760.4970046
0.4764087-0.566587270.6499915-0.25535598-1.1535802

0.4705303-0.51972110.5868654-0.23699870.8474595
-0.09394602-0.047460813-0.020675728-0.14136203-0.35489157
0.166483790.0165154780.4745195-0.47962190.83840054
-0.114902414-0.2174310.120340850.431582630.3142761
0.07955082-0.6382165-0.50733490.53978220.090444066
-0.5070981-0.0424332540.23445515-0.66890050.031043386

-0.36852193-0.019589359-0.659292340.402210680.54999423
0.82077950.10565061-0.12760867-0.232105760.17119423
-0.21320198-0.51986134-1.0910037-0.450001660.34208256
-0.0132382320.51289225-0.0490631130.333243970.5140895
0.7100024-0.73628770.36458260.35421920.36352962
0.85665470.44489217-0.9441480.9588809-0.30709034

-0.231113870.21910012-0.56858957-0.36966953-0.069762506
0.31102917-0.0290267260.58894110.117597520.47737688
0.099029660.53740144-0.3416976-0.49156424-0.5915642
-0.0214560030.466710180.0365706940.24247052-0.44313812
-0.18074529-0.11814486-0.72670424-0.7367698-0.90082455
-0.179572640.7112508-0.602509440.30430478-0.26922905

-0.232865270.50949940.553169250.0487736-0.15125017
0.71363765-0.971533060.905654250.044745445-0.08471258
-0.0448671650.022753961-0.248333330.24752659-0.28497577
-0.219719720.16883159-0.13886961-0.46803012-0.5433298
-0.21248877-0.09737534-0.237393-0.390665620.75400054
-0.90275633-0.093045580.507657770.71375960.6604536

0.221177090.3795858-2.681464E-4-0.61421585-0.40952966
-0.1761643-0.570407750.074492830.287413540.3838433
0.061615348-0.2698065-0.031885721.4716817-0.46657708
0.208771420.18342158-0.31248480.864366530.05128428
-0.55340790.152132990.299044040.622236430.23961493
-0.533913-0.164498370.054539910.02208503-0.7155995

0.36937931.0734570.5645604-0.057767270.44514838
-0.50173780.403476330.27273047-0.58701634-0.32104272
0.050590765-0.204441010.069411440.840009-0.58918476
-0.12328567-0.20163698-0.238333610.255602-0.7505297
-0.0088368970.128964780.64369560.233448-0.708128
-0.762141640.0532643980.016999278-0.57895637-0.48211935

0.0162023470.2200970.34257580.0733347460.1797835
0.194107890.48573208-0.15120374-0.26450220.2727475
-0.445734680.37925833-0.28901964-0.262056620.35339236
0.278135480.21998006-0.0547262770.27026367-0.7008121
-0.111161570.38255295-1.12599750.016951140.42591676
-0.323171470.25881273-0.42827925-0.06704340.0814638

0.4246228-0.518237771.1390374-0.31565452-0.6859474
0.15596542-0.124187425-0.250460860.66467410.11756278
0.099029660.3240735-0.33782572-0.49156424-0.5915642
-0.0214560030.466710180.0365706940.23657851-0.44313812
-0.18074529-0.11814486-0.41478795-0.2867698-0.5876384
-0.18500990.967647-0.24532618-0.044657458-1.061102

0.344016020.6241978-0.06791713-0.554279740.5415562
0.5038838-0.180993530.55504775-0.463765920.33594483
-0.187580970.362618540.19583356-0.10194632-0.33809626
0.5236738-0.205947160.440470250.367418860.29180288
0.40113518-0.21959780.36458260.58374910.36352962
-0.13983870.011860896-0.0770551560.581034240.8333113

-0.3558352-0.36889184-0.053886093-0.059464544-0.67569304
0.30558056-0.51536036-0.4730432-0.70135190.107072696
-0.69846255-0.04248136-0.29092923-0.5634823-0.15112293
0.084964460.17941867-0.7781341-0.0098353870.57747984
-0.4327976-0.0498788130.29468647-0.107597010.66333836
-0.118372170.381676320.203152690.0288223380.70084435

-0.241957680.70479450.08122214-0.33753493-0.365014
-0.33849180.761674170.010566897-0.197066590.4188699
0.34602317-0.52573830.049864060.0231043160.25319597
-0.81813290.483299550.4082941.2001671-0.3578047
-0.2628786-0.44910696-0.21432818-0.69334240.49348998
0.44648653-0.16973457-0.0279628880.33437186-0.02507049

-0.17978263-0.37565067-0.460353880.9769001-0.067277215
0.50418050.031604380.095558750.2279631-0.5221666
-0.280081750.63170660.68811870.6676783-0.73342973
-0.0155976840.634611370.26821440.123100810.60336226
-0.11842029-0.56142765-0.160497410.3499295-0.7045219
-0.5253096-0.179403130.43470958-1.10135270.38571203

-0.36026716-0.25297695-0.43156907-0.017538607-0.19518833
-0.0344468430.3707003-0.166760730.0377833770.8662187
0.622487070.30260790.058619620.4713998-0.4180965
0.201037180.464607150.68509590.627026560.518105
-0.81947595-0.787594440.4388706-0.06934360.30063817
-0.0212440920.326992150.189831260.78474280.03177181

0.83029520.7165701-0.340721220.5639402-0.15162177
0.47376030.2787029-0.35795210.12080559-0.6168287
0.45377220.40431374-0.18476075-0.43710166-0.2491667
-0.12301095-0.17032099-0.14564080.60697997-0.29768905
-0.248888760.15669891-0.49729308-1.14804590.0023042886
0.192010020.82683927-0.199288670.2532747-0.05237846

-0.11385976-0.1428827-0.38281626-0.43794554-0.66614914
-0.14619084-0.73687917-0.205028060.550540570.38686225
-0.214216430.402636080.010023084-0.05442624-0.32604003
0.35203907-0.249311060.27598423-0.339146820.2188016
-0.0259834430.02386288-0.668032650.890760.17554532
-0.012916009-0.9659169-0.42118916-0.66183790.089176364

-0.0438489760.096224286-0.083822116-0.106239766-0.5801324
-0.406100870.23778045-0.15641640.44228017-0.19171157
0.2898406-0.7927121-0.0330647380.02651994-0.2378077
-0.12301095-0.17032099-0.14564080.60697997-0.29768905
-0.248888760.15669891-0.49729308-1.14804590.0023042886
0.192010020.82683927-0.199288670.2532747-0.05237846

0.136341850.68026990.098350630.055352792-0.12303405
-0.26991.1671385-0.173048910.96245295-0.5733211
-0.058359270.5741268-0.155430380.27168947-0.3484424
0.5236738-0.42915220.36080210.367418860.29180288
0.102377010.110202970.013917178-0.12626064-0.16771217
-0.0396210250.464990530.513819340.21209994-0.20966078

-0.28300923-0.7191346-0.3951597-0.11974629-0.18477239
-0.1761643-0.570407750.074492830.287413540.3838433
0.061615348-0.2698065-0.031885721.5250318-0.46657708
0.208771420.18342158-0.31248480.864366530.05128428
-0.21412587-0.041874096-0.727188650.17298888-0.56864357
0.161451820.6289093-0.41269904-0.4164670.18785249

0.453151050.0499423670.473201960.027821586-0.9849263
-0.0419166570.5799728-0.0010385587-0.19432540.11498235
-0.162082720.142999680.193433520.05490597-0.28656414
-0.31896370.84779890.0272368830.23238412-1.0498481
-0.208232130.024002004-0.9340779-0.04177035-0.42040995
-0.13983870.011860896-0.0770551560.581034240.8333113

-0.47620082-0.51745541.389380.6825919-0.06737517
-1.01440.05578563-0.722640160.20705576-0.16552179
-0.08224137-0.30834540.139066550.17056549-0.47401494
-0.29774840.14308496-0.5840012-0.63535166-0.22148424
-0.55340790.152132990.299044040.622236430.23961493
-0.533913-0.164498370.054539910.02208503-0.7155995

0.58387643-0.2595717-0.18387039-0.56914220.16122137
-0.725145940.46334070.220164780.470161470.052256584
-0.040465940.17590714-0.7042330.209592670.05470804
-0.32258514-0.49516633-0.62364510.0039779916-0.08358603
-0.0327850170.52009904-0.329754320.34004053-0.20982923
-0.56585730.0532643980.016999278-0.57895637-0.48211935

-0.847375630.50896996-0.3083642-0.436381670.27037925
-0.48482670.53462190.55879766-0.31139870.07125175
0.22123581-0.33387744-0.56595796-0.884932640.0179026
-0.43214375-0.516081630.41379870.237666220.17026079
0.3642364-0.49931258-0.0418140070.34407166-0.48355234
0.31001136-0.223564680.234339570.23001784-0.19392867

0.30201298-0.49581080.007420540.139308870.13144338
0.49048662-0.47673723-0.941118960.203920250.22305052
0.0018166824-0.46430240.41784084-0.10497994-0.4069658
0.3771064-0.35332763-0.86324270.33152460.25576523
-0.4393013-0.37867522-0.404172930.73130244-0.37412533
-0.0032328488-0.62534310.21766312-0.24871941-0.111021765

-0.28300923-0.4809625-0.3951597-0.25557023-0.18477239
-0.1761643-0.570407750.074492830.287413540.3838433
0.60654640.904151440.25013348-0.94527555-0.081055105
-0.42803493-0.247865440.14216019-0.14440680.7175385
-0.29958308-0.249044220.48107070.328526560.6872771
-0.105544420.375577420.0855378060.68081546-0.85463464

-0.677222850.51549580.2622088-0.30368704-0.21735056
-0.106245680.12503679-0.27182227-0.14273866-0.073893666
0.86812806-0.318836570.47993913-0.22584136-0.81403774
0.261512130.204141570.27982860.048014343-0.25805202
-0.199301350.31556060.1798568-0.28901863-0.68177617
0.40007892-0.41068260.00584887530.4099651-0.11028075

-1.04695170.174993250.23193793-0.18435112-0.045098875
-0.0344468430.2517338-0.362387030.0377833770.8662187
-0.08258982-0.26134276-0.015830380.60973220.34893256
-0.12328567-0.20163698-0.238333610.255602-0.7505297
-0.0386689230.128964780.467098980.233448-0.708128
0.321831080.487778930.5061584-0.07257131-0.23591834

-0.0106004765-0.9951423-1.3073533-0.22915982-0.15781203
0.47958510.0189302470.77736217-0.320132260.16168216
-0.320908220.3545541-0.18883250.2694448-0.25342664
-0.0575509330.051432263-0.12990558-0.0134569580.36946163
0.5825211-0.67298830.20963554-0.59699080.21078505
0.1762766-0.016156888-0.206128390.16960281-0.51986784

-0.253232030.420459150.57019484-0.73599887-0.03917368
-0.112741515-0.147939560.0616274550.6005170.074089006
-0.7665366-0.16919713-0.049135850.56070610.11626857
-0.18573359-0.166177420.429682-0.17773832-1.1484182
-0.21412587-0.041874096-0.727188650.17298888-0.56864357
0.396989940.26083317-0.284359570.38373813-0.21494731

0.234988450.0139800350.45342523-0.110685670.105240695
-0.093186624-0.31677210.79947406-0.0972373260.50353867
0.187612980.36097970.775333170.068003796-0.68393713
-0.0248075610.184130920.0695384740.17269950.9391374
0.28557703-0.32103345-0.19406377-0.12156817-0.15094164
-0.42933841.02914940.73132205-0.09063462-0.16177297

-0.15454315-0.8742156-0.26327953-0.6302765-0.17468205
0.429824080.066842670.31150988-0.023336561.384527
-0.320908220.3545541-0.18883250.2694448-0.25342664
-0.524244370.30230430.689330.883285340.15935262
-0.089181475-0.475777420.40083620.632258240.4970046
0.4764087-0.566587270.6499915-0.25535598-1.1535802

-0.07661435-0.0176949870.167382910.360606070.550131
-0.401167480.638557140.722654040.6105938-0.12669432
0.11410935-0.80073637-0.153828260.507721660.5430119
0.3771064-0.35332763-0.86324270.522447940.25576523
-0.4393013-0.37867522-0.404172930.5385961-0.37412533
-0.43566573-0.74496140.173470880.094995830.30418217

0.83029520.7165701-0.340721220.5639402-0.15162177
0.352984130.58580220.21767792-0.073237850.23309946
-0.65296435-0.07741736-0.215062870.10011454-0.3778976
-0.05616972-0.00493328230.230955780.737343130.086467095
0.344908860.05196723-0.339062570.0790670.30832142
-0.88385135-0.248192640.43470958-0.65795260.6623417

0.4705303-0.374846370.5868654-0.23699870.8474595
0.352984130.58580220.21767792-0.073237850.23309946
-0.65296435-0.07741736-0.21506287-0.0077804965-0.40746704
-0.056169720.167762640.58615230.853398260.086467095
0.226463590.49858356-0.7149629-0.280567380.21268316
-0.88385135-0.179403130.43470958-1.10135270.6623417

-0.33842182-0.5769087-0.13913609-0.6176671-0.2758428
0.35174670.02948314-0.5433332-0.7400294-0.577489
0.73674550.660119350.48260233-0.121351611.191174
0.33665258-0.2609977-0.586059-0.241002071.0742066
-0.52514035-0.72604870.32657534-0.04287491-7.5597595E-4
0.081766166-0.5631554-0.21520907-0.766779-0.007430019

1.5690103-0.10968570.18540466-0.0174293520.04808236
0.352984130.58580220.21767792-0.073237850.23309946
-0.65296435-0.07741736-0.21506287-0.0077804965-0.40746704
-0.05616972-0.00493328230.230955780.853398260.14328162
0.1367920.0113616870.555877570.29501188-0.38735068
-0.162825720.10029945-1.0289185-0.1721821-0.78538287

0.4705303-0.374846370.5868654-0.283229740.8474595
-0.05215905-0.3058615-0.15677930.69947450.50442433
-0.0448671650.022753961-0.248333330.24752659-0.28497577
-0.328561870.17285797-0.284022660.047395173-0.08058154
0.22208467-0.8160555-0.563143550.0338935670.6029692
0.6342639-0.70512974-0.80922330.389990660.069206215

0.135724070.62724894-0.9385073-0.35461630.63844645
0.5473738-0.29772055-0.42345480.5892595-0.6254861
0.21974486-0.04579765-0.07647944-0.559188960.5146131
-0.29774840.33758947-0.5840012-0.63535166-0.22148424
0.3642364-0.499312580.229635450.34407166-0.48355234
0.31001136-0.223564680.234339570.23001784-0.19392867

0.4705303-0.51972110.5868654-0.23699870.8474595
-0.05215905-0.3058615-0.15677930.69947450.50442433
0.425466120.64691275-0.011187248-0.39708194-0.5919237
-0.219719720.16883159-0.13886961-0.46803012-0.5433298
-0.248888760.15669891-0.49729308-1.14804590.0023042886
0.192010020.8440322-0.199288670.2532747-0.05237846

0.7180219-0.243486820.103799485-0.36969367-0.5936485
0.1398199-0.3475518-0.324986520.0470521450.08538196
-0.15287547-0.2414208-0.16168447-0.16753810.13727842
0.55274934-0.465256570.48776870.073047170.35919556
-0.101016946-0.429889050.52453530.148798930.14230026
-0.0042994986-0.381355520.092816025-0.0159831640.27610368

-0.232865270.50949940.553169250.0487736-0.15125017
0.71363765-0.971533060.905654250.044745445-0.08471258
-0.0448671650.022753961-0.248333330.24752659-0.28497577
-0.219719720.16883159-0.13886961-0.46803012-0.5433298
-0.18074529-0.11814486-0.27323908-0.2867698-0.5876384
-0.18500990.84924275-0.24532618-0.044657458-1.061102

-0.410553370.147518620.09168229-0.113367125-0.6397978
0.28382793-0.578955770.77341550.0080682630.2850069
-0.10565692-0.36612310.33638224-1.0434413-0.34819794
0.195822430.3088312-0.4623025-0.13268481.0065578
-0.4141431-0.41514006-0.289305930.24323246-0.7747591
-0.88385135-0.248192640.43470958-0.65795260.6623417

0.175890560.088083394-0.58439690.283938560.2833089
0.4256939-0.12327956-0.011417407-0.0181919630.0026760083
0.46705860.30260790.058619620.0973157-0.4180965
0.338961270.5135040.68509590.627026560.16540886
0.222506610.172080170.62688047-0.108265310.49530736
-0.533913-0.164498370.054539910.02208503-1.1734962

-0.6014406-0.31319420.13691144-0.46926188-0.75040036
-0.05278120.621786240.153559330.03681460.2587438
-0.539705340.118621560.142344770.6684277-0.051888667
-0.247721880.367075230.09689553-0.442866680.025491571
-0.57338630.311896620.118109584-0.3819684-0.2185289
-0.078987550.20521168-0.0351776850.75856730.22009236

0.71311960.36247060.279312460.07620384-0.18158239
-0.172184270.51273155-0.284315740.049294710.51076865
-0.301447240.201223150.0211797950.58325170.9538876
0.5236738-0.42915220.440470250.367418860.29180288
-0.233320940.110202970.013917178-0.12626064-0.27798152
0.5790271-0.044901240.016622577-0.3381802-0.117014095

0.12841162-0.16007039-0.343148170.14593817-0.11676985
0.15953472-0.3676122-0.6671596-1.0833323-0.39340094
0.2898406-0.7927121-0.0330647380.02651994-0.2378077
-0.12301095-0.17032099-0.14564080.60697997-0.29768905
-0.248888760.15669891-0.49729308-1.14804590.0023042886
0.192010020.82683927-0.199288670.2532747-0.05237846

0.30201298-0.49581080.007420540.139308870.42016998
0.08233762-0.47673723-0.941118960.203920250.22305052
0.0018166824-0.46430240.41784084-0.10497994-0.4751069
0.5688274-0.35332763-0.86324270.33152460.25576523
-0.19336121-0.487997230.491355720.28994957-0.8142372
-0.762141640.0532643980.016999278-0.57895637-0.48211935

0.66188383-0.220507130.57069606-0.096735220.13011315
0.467831020.070799460.178920870.05098195-0.4938079
-0.412691680.127559040.589892860.26204062-0.97787386
-0.45007250.125494320.048842907-0.190724490.099854164
0.284155070.26704195-0.07546467-0.3505648-0.013974344
-0.0470440760.22051473-0.172748550.475094020.33016744

0.42067970.18682766-0.014176923-0.12206082-0.31762782
0.27439840.232775420.23623328-0.5264926-0.06221651
0.58573616-0.25785023-0.030200763-0.21705034-0.12820688
-0.290407720.377071830.17033419-0.041620206-0.06225227
0.2592738-0.19183427-0.47807616-0.259451060.06922291
0.39728436-0.18496934-0.17429073-0.41585590.25401688

-0.0354847130.141528220.181179340.36283696-0.020341918
-0.140217290.047535660.65137710.93366456-0.18845026
0.123655750.2548804-0.109336870.3481108-0.0033236155
-0.118299470.3088312-0.47385445-0.1434131.0065578
0.28557703-0.32103345-0.19406377-0.121568170.47729078
0.13979343-0.47392710.13206013-0.184327260.17081903

0.66188383-0.220507130.57069606-0.392673160.13011315
0.7030477-0.853486-0.121399670.416874620.15728945
-0.09899514-0.711723860.11474317-1.23801950.062433302
0.25846326-0.30492008-1.1742318-0.017570546-0.5658401
-0.5557883-0.289008-0.78043790.8225073-0.92622817
-0.012916009-0.9659169-0.42118916-0.66183790.089176364

0.83029520.7165701-0.340721220.5639402-0.15162177
0.352984130.58580220.21767792-0.073237850.23309946
0.31701955-1.07658570.78013164-0.0125849910.32469586
-0.84955010.36453435-0.1241163460.272827180.0949221
0.308996980.0228567870.04030515-0.64833844-0.1313925
-0.10546631-0.6177178-0.50443780.779989660.2373076

0.30419865-0.23304348-0.629571140.213071350.5049964
-0.959216060.05578563-0.632090870.20705576-0.16552179
0.16492279-0.30834540.139066550.17056549-0.54872686
0.047487280.192671870.32310984-0.528998850.94363195
-0.52514035-0.72604870.32657534-0.04287491-7.5597595E-4
0.081766166-0.5631554-0.21520907-0.766779-0.80784523

0.341873140.0523492320.3143991-0.13806942-0.8294159
-0.106245680.12503679-0.27182227-0.14273866-0.073893666
0.2898406-0.7927121-0.0330647380.02651994-0.2378077
-0.12301095-0.17032099-0.14564080.60697997-0.29768905
-0.248888760.15669891-0.49729308-1.14804590.0023042886
0.192010020.82683927-0.199288670.2532747-0.05237846

0.3497540.378961620.41857380.28612220.17657626
-0.030282987-0.3119660.74246120.096542045-0.001874432
-0.23241933-0.137163920.23933409-0.246427030.8443729
0.010567196-0.3635931-0.382863880.608326440.32971764
-0.27447358-0.51013940.43665484-0.045035170.020041488
1.13574980.259262080.4960345-0.073169750.22340328

-0.0176870040.075396284-0.320196030.0961735840.07614139
-0.0568415450.629326340.510679-0.868854050.6336307
-0.49462720.510241270.43164137-0.17137599-0.27994627
-0.247721880.367075230.09689553-0.442866680.025491571
-0.4835823-0.774419840.81931180.6410110.15224455
-0.398027180.46599534-0.5707880.3951243-0.689732

-1.04695170.174993250.23193793-0.08888738-0.045098875
-0.0344468430.2517338-0.16676073-0.142075360.8662187
0.3096692-0.7927121-0.0330647380.02651994-0.15823597
-0.33277598-0.56127930.294952420.29609528-0.39248753
-0.43006128-0.09949973-0.674464760.50601530.32474747
-0.848315060.1113626960.26297730.16939051-0.09631813

0.36013088-0.220507130.57069606-0.096735220.13011315
0.467831020.070799460.10463910.05098195-0.4938079
0.13723050.33455947-0.099303655-1.142990.16454455
0.33114687-0.199938820.066666506-0.75476410.24002676
-0.4754120.28043020.829257850.42081276-0.17409617
-0.2284370.369787340.0372770730.403223480.43613565

0.19136485-0.167277370.101435910.595921160.23863524
0.10801875-0.4825295-0.045642376-0.57795817-0.15088743
0.31058857-0.576255140.43777728-0.7371963-0.25361553
-0.27807665-0.5002226-0.58132950.397873370.88386065
-0.027447574-0.441839370.33171237-0.358473660.6008429
-0.54083747-0.54732310.8936151-0.33894515-0.19453448

-0.6803304-0.155014040.516925930.4051536-0.66529834
-0.38147256-0.48711422-0.03372485-0.695594670.8036282
0.10534528-0.032685526-0.187102210.214829040.5216643
0.5379532-0.342276420.09928462-0.43605226-0.23352997
0.073303880.20892742-0.019466130.438578280.11838123
0.1597221-0.22266357-0.00320552570.335533380.17701553

0.66188383-0.220507130.57069606-0.096735220.13011315
0.194107890.485732080.45060676-0.633476440.61626065
-0.7680911-0.4574508-0.49528393-0.41802055-0.5545326
-0.05616972-0.00493328230.230955780.853398260.086467095
0.226463590.49858356-0.7149629-0.280567380.21268316
-0.487944070.27823895-0.1906499-0.04953446-0.54687935

0.58387643-0.2595717-0.18387039-0.56914220.26101223
-0.112741515-0.147939560.0616274550.6005170.074089006
-0.7858562-0.16919713-0.049135850.56070610.11626857
-0.20339707-0.166177420.429682-0.17773832-0.7916642
-0.21412587-0.041874096-0.727188650.17298888-0.56864357
1.6865450.259262080.4960345-0.073169750.22340328

0.7180219-0.174520030.103799485-0.36969367-0.5936485
-0.959216060.05578563-0.632090870.1359213-0.16552179
-0.08224137-0.30834540.139066550.17056549-0.47401494
0.047487280.192671870.5464637-0.528998850.94363195
-0.462307480.054867636-0.0600571220.37405476-0.5138235
-0.0534752050.15541388-0.132909720.083436940.3449259

0.83029520.7165701-0.340721220.5639402-0.15162177
-0.0250709060.16558973-0.14879747-0.276011940.05808394
0.13526545-0.4376126-0.1922554-0.6227006-0.39988345
0.221112160.73988040.19134957-0.70826160.8725502
-0.492360470.665690360.08954477-0.63733240.023720622
0.70824397-0.0351766050.050392594-0.21655570.2221591

0.4246228-0.518237771.1390374-0.31565452-0.6859474
0.15596542-0.124187425-0.250460860.66467410.5045203
-0.57387996-0.1272522-0.190445130.51075620.9280186
-0.703404-0.18266091-0.852280260.1071006660.09810918
0.287747560.0113616870.555877570.29501188-0.38735068
-0.162825720.10029945-1.0289185-0.1721821-0.78538287

-0.232865270.57132330.553169250.0487736-0.15125017
-0.243710950.32680812-0.040102440.048702670.5254896
-0.48281968-0.018632075-0.054446105-0.45376354-0.47773057
-0.51400440.394490720.087130904-0.16964269-0.3371052
-0.4754120.28043020.395899650.42081276-0.17409617
-0.2284370.369787340.0372770730.403223480.43613565

0.453151050.0499423670.473201960.027821586-0.9849263
-0.0419166570.5799728-0.0010385587-0.19432540.11498235
-0.162082720.142999680.193433520.054905970.20434701
-0.31896370.84779890.0272368830.31302255-1.0498481
-0.4141431-0.41514006-0.289305930.24323246-0.7747591
-0.88385135-0.248192640.43470958-0.65795260.7399163

-0.49390462-0.0100391805-0.47015303-0.010251289-0.2642083
-0.16103140.23218957-0.320358630.182435620.4484529
-0.0402044770.113861140.172232390.41546753-0.15610723
0.70275820.21921021-0.20115642-0.196813-0.23931457
-0.4835823-0.774419840.81931180.44678930.15224455
1.13574980.259262080.4960345-0.073169750.22340328

0.531536640.088083394-0.58439690.283938560.2833089
-1.17145530.63746060.87386790.15220402-0.056167684
0.15731336-0.11510893-0.1040508750.79729986-1.5031733E-4
-0.14880377-0.0306417180.7733238-0.280261550.34541818
0.04502229-0.178043680.347074180.20724383-0.23487473
1.13574980.259262080.4960345-0.0316666070.22340328

0.4206797-0.13923171-0.014176923-0.12206082-0.31762782
0.288750560.245483030.7662103-0.082891190.17920038
-0.0402044770.113861140.172232390.49207205-0.15610723
0.371413920.21921021-0.20115642-0.196813-0.23931457
-0.208232130.024002004-0.9340779-0.04177035-0.42040995
-0.13983870.0118608960.200090130.581034240.8333113

-0.300873070.423522680.09574504-0.39998794-0.31784484
-0.44506580.22038285-0.8224795-0.41557857-0.614866
-0.0402044770.113861140.172232390.49207205-0.15610723
0.29939535-0.02786240.32193303-0.45328125-0.49554846
-0.55886114-0.9786574-0.4071038-0.0789678-0.1550584
0.06895351-0.329481540.23368506-0.180731940.018002542

0.084706190.35020210.392478620.315647130.24149321
0.0996495040.54235750.6161897-0.69156986-0.2681873
0.099029660.3240735-0.36925-0.49156424-0.5915642
-0.1552970.184130920.0695384740.17269950.9391374
0.28557703-0.5116604-0.19406377-0.07361809-0.15094164
0.016727744-0.56918370.13206013-0.184327260.17081903

0.13889293-0.851876260.096096920.48217428-0.34577405
0.595881640.391209540.16953053-0.19001186-0.5796136
0.16709737-0.25301272-0.125796990.2760924-0.09894751
0.122695446-0.105571360.7559019-0.088142190.0846011
-0.054886950.07427111-1.0543140.260405570.42589223
0.48435470.67256390.61546640.14137635-0.6781856

0.4705303-0.374846370.5868654-0.283229740.8474595
-0.05215905-0.3058615-0.46613710.69947450.50442433
-0.06845276-0.26068598-0.21471567-0.58633006-0.28012887
-0.05616972-0.00493328230.230955780.86739755-0.08262242
0.344908860.05196723-0.828886030.0790670.30832142
0.0042898683-0.24645531-0.14233568-0.61108650.28545088

0.7970827-0.10968570.08947169-0.0174293520.04808236
0.352984130.58580220.21767792-0.073237850.23309946
-0.301447240.201223150.135319770.58325170.9538876
0.208771420.18342158-0.31248480.841315270.05128428
-0.27447358-0.51013940.43665484-0.045035170.19401032
1.13574980.259262080.4960345-0.50769480.18384294

0.71883110.5390903-0.36967614-0.5632224-0.11704615
0.595881640.391209540.16953053-0.19001186-0.5796136
0.16709737-0.32834432-0.28840270.2760924-0.09894751
-0.175838440.437164250.8714908-0.40316087-0.100990385
-0.462307480.054867636-0.0600571220.37405476-0.5138235
-0.762141640.0532643980.016999278-0.57895637-0.48211935

0.83029520.7165701-0.340721220.5639402-0.15162177
0.352984130.58580220.21767792-0.073237850.23309946
0.054171630.022753961-0.248333330.24752659-0.28497577
0.201511440.187244770.0289686490.86688470.14495035
0.313147720.106838090.157139050.0129083665-0.14623018
-0.012916009-0.9659169-0.42118916-0.66183790.089176364

0.16165377-0.72137770.2687474-0.7736845-0.0132835815
0.214779350.50700027-0.45223892-0.096624434-0.25616956
0.13526545-0.4376126-0.1922554-0.6227006-0.39988345
0.221112160.73988040.19134957-0.70826160.8725502
-0.492360470.665690360.08954477-0.6373324-0.28478897
0.70824397-0.0351766050.050392594-0.21655570.2221591

-0.340564280.35510020.719435930.32479972-0.37505567
-0.472177330.233735370.50323820.32322627-0.06751571
0.45413312-0.17344254-0.419989320.49888828-0.19002739
0.65917740.0072025650.11330106-0.0137783840.31397143
0.704231140.0675293360.4646578-0.0334640070.13722219
-0.42933840.523731350.5020599-0.09063462-0.43951645

0.7970827-0.10968570.18540466-0.0174293520.04808236
0.352984130.58580220.21767792-0.073237850.23309946
-0.65296435-0.07741736-0.21506287-0.0077804965-0.40746704
-0.05616972-0.00493328230.084163580.853398260.14328162
0.226463590.49858356-0.7149629-0.280567380.21268316
-0.487944070.27823895-0.1906499-0.04953446-0.54687935

0.32037085-0.441644340.7912798-0.158659030.16992824
0.40955263-0.37544566-0.6984286-0.0025878586-0.2336521
0.39246430.0584753860.4424047-0.39937946-0.32546556
-0.175838440.437164250.87149080.09183633-0.100990385
-0.6089972-0.2088220.172867920.52438230.08236235
-0.16282572-0.012990631-0.9213378-0.015498504-0.78538287

-0.340564280.35510020.71943593-0.06276781-0.37505567
0.595881640.391209540.16953053-0.19001186-0.5796136
0.33905867-0.12253028-0.5807673-0.14644244-0.25594333
0.015784790.106412660.653676750.587757230.07081805
-0.23211586-0.475777420.40083620.581383760.4970046
0.4764087-0.566587270.6499915-0.25535598-1.1535802

0.048862826-0.20647797-0.190351340.082223095-0.68314856
-0.406100870.23778045-0.15641640.44228017-0.19171157
0.5629374-0.149233129.7240764E-40.300806460.6411224
-0.96851480.112105190.17803164-0.0689640051.019173
-0.27447358-0.51013940.43665484-0.045035170.020041488
1.13574980.259262080.4960345-0.073169750.22340328

-0.49390462-0.0100391805-0.47015303-0.010251289-0.2642083
-0.16264927-0.27414510.16331321-0.37484850.40568808
0.45413312-0.71476495-0.419989320.49888828-0.19002739
0.65917740.0072025650.11330106-0.013778384-0.16092741
0.704231140.0675293360.4646578-0.0334640070.15408374
0.30056003-2.0833513E-4-0.3391580.14752136-0.41437882

-0.340564280.35510020.719435930.32479972-0.37505567
-0.472177330.233735370.50323820.32322627-0.06751571
0.45413312-0.71476495-0.51702630.49888828-0.19002739
-0.0248075610.184130920.0695384740.17269950.9391374
0.28557703-0.32103345-0.19406377-0.12156817-0.15094164
0.016727744-0.56918370.13206013-0.184327260.17081903

-1.0469517-0.0771403240.23193793-0.184351120.23932606
-0.053632844-0.8816459-0.6689355-0.821150840.14906813
-0.431578040.025880126-0.45560315-0.2526525-0.14508171
0.371413920.21921021-0.20115642-0.196813-0.23931457
-0.208232130.024002004-0.9340779-0.04177035-0.42040995
0.179446650.194080740.6486233-0.29945758-0.7718367

0.71448070.152757960.075494770.17996912-0.19068752
-0.053632844-0.8816459-0.6689355-0.821150840.081937164
-0.431578040.025880126-0.45560315-0.2526525-0.14508171
-0.23688231-0.66725390.1224144850.453238760.11660844
-0.112298-0.240132640.025204685-0.0242381110.43071234
-0.88385135-0.248192640.43470958-0.65795260.6623417

0.58387643-0.2595717-0.18387039-0.56914220.16122137
0.011408607-0.4825295-0.045642376-0.57795817-0.15088743
-0.04984302-0.576255140.43777728-0.7371963-0.4684043
0.29939535-0.02786240.32193303-0.45328125-0.49554846
-0.55886114-0.9786574-0.4071038-0.0789678-0.1550584
0.06895351-0.329481540.23368506-0.180731940.018002542

0.36937931.0734570.5645604-0.057767270.43076527
-0.725145940.46334070.220164780.470161470.052256584
-0.57387996-0.1272522-0.190445130.51075620.9280186
-0.703404-0.18266091-0.5205985-0.2345919-0.113310196
0.1367920.0113616870.555877570.29501188-0.38735068
-0.162825720.10029945-1.0289185-0.1721821-0.78538287

0.054010548-0.4109084-0.24309610.152860690.6387114
0.71958363-0.12720332-0.72050940.59603050.87436503
0.22123581-0.33387744-0.56595796-0.884932640.0179026
-0.20633880.15833451-0.411777440.02937685-1.192102
-0.14698097-0.60755473-0.32851680.403410940.1017604
0.142251390.00901219250.41928148-1.25210440.09683168

-0.15947309-0.028926276-0.368700830.36058160.5821564
0.595881640.391209540.16953053-0.19001186-0.5796136
0.33905867-0.12253028-0.5807673-0.14644244-0.25594333
0.015784790.106412660.74864930.587757230.07081805
-0.089181475-0.475777420.640517830.581383760.4970046
0.4764087-0.566587270.6499915-0.25535598-1.1535802

0.453151050.0499423670.968358340.027821586-0.9849263
0.075900210.41128430.197028491.35316230.37137178
0.047060564-0.6545131-0.58230895-0.4498866-0.0487877
-0.347242920.14868633-0.8097029-0.0135215220.7275665
0.222506610.172080170.938215-0.108265310.49530736
-0.179572640.7112508-0.166838970.30430478-0.26922905

0.30201298-0.49581080.007420540.139308870.42016998
0.08233762-0.47673723-0.941118960.203920250.22305052
-0.320908220.3545541-0.41773890.2694448-0.25342664
-0.2984895-0.29294330.07218003-0.407479880.35138264
0.79586726-0.174301340.285568540.22901532-0.58469355
-0.323171470.25881273-0.42827925-0.06704340.0814638

-0.232865270.57132330.553169250.0487736-0.15125017
0.71363765-0.971533060.905654250.0447454450.020426236
0.054171630.022753961-0.248333330.24752659-0.28497577
0.201511440.187244770.0289686490.86688470.14495035
0.313147720.106838090.157139050.0129083665-0.14623018
-0.398027180.46599534-0.5707880.30475292-0.890222

0.12841162-0.16007039-0.343148170.14593817-0.11676985
0.15953472-0.3676122-0.6671596-1.0833323-0.39340094
-0.49462720.510241270.43164137-0.17137599-0.27994627
-0.17631331-0.8212875-0.290156540.0644872040.52372944
-0.11842029-0.56142765-0.160497410.3499295-0.7045219
-0.88385135-0.248192640.43470958-0.65795260.6623417

-0.300873070.423522680.09574504-0.39998794-0.31784484
-0.472177330.233735370.50323820.32322627-0.06751571
-0.040465940.17590714-0.7042330.209592670.05470804
-0.32258514-0.49516633-0.62364510.12419675-0.08358603
-0.0327850170.52009904-0.329754320.25539178-0.20982923
0.1597221-0.22266357-0.00320552570.335533380.17701553

-0.369186520.69971521.12794790.226865320.043385055
-0.172184270.51273155-0.284315740.049294710.51076865
-0.301447240.201223150.389291670.58325170.9538876
0.208771420.18342158-0.31248480.864366530.05128428
0.5930230.0240159130.30314225-0.25031757-0.5307718
-0.14868350.25129282-0.25811622-0.0362650.030179799

-0.25885534-0.31800073-0.016507924-0.44064447-0.18420519
-0.51938690.2232164-0.85726833-0.6057662-0.38360387
0.19167419-0.009721228-0.25471464-0.15912142-0.24947374
0.150232780.057706780.3275423-0.564594751.1154958
0.158299640.54231280.75040410.387586680.16190876
0.49416244-0.4266715-0.151385140.059380993-0.07224154

0.341873140.0523492320.3143991-0.13806942-0.8294159
-0.106245680.12503679-0.27182227-0.14273866-0.073893666
0.6036216-0.318836570.47993913-0.22584136-0.81403774
0.261512130.204141570.27982860.048014343-0.25805202
-0.14698097-0.60755473-0.32851680.40341094-0.4445715
0.142251390.00901219250.41928148-1.25210440.09683168

-0.493818580.17852433-0.1099478160.5070009-0.0129749505
0.8207795-0.37508133-0.12760867-0.232105760.17119423
-0.23241933-0.137163920.005581421-0.131879990.8443729
0.010567196-0.3635931-0.382863880.608326440.32971764
0.226463590.49858356-0.7149629-0.073906980.21268316
-0.487944070.278238950.124689735-0.10468717-0.54687935

0.66188383-0.220507130.57069606-0.096735220.13011315
0.06313304-0.12327956-0.011417407-0.0181919630.0026760083
0.46705860.30260790.058619620.0973157-0.4180965
0.338961270.97727320.68509590.627026560.16540886
0.547196750.46135655-0.0516772830.1731772-0.28240445
0.0567313470.480085160.17395711-0.165923940.05574837

-0.66661584-0.13483986-0.368492450.179109780.05627016
-0.05215905-0.3058615-0.15677930.69947450.50442433
-0.12124353-0.24165884-0.322694330.55619430.1510665
-0.32258514-0.49516633-0.62364510.12419675-0.08358603
-0.0327850170.52009904-0.329754320.25539178-0.20982923
0.1680291-0.17577483-0.31117290.09111258-1.1086268

0.7970827-0.10968570.18540466-0.0174293520.04808236
0.25946906-0.5580132-0.381465820.10013827-0.068862565
0.76946750.0570694950.5426662-0.0230973140.48852977
-0.51959735-0.49141145-0.071940795-0.27063286-0.3410491
0.13034129-0.019449405-0.019466130.438578280.11838123
-0.0212440920.32699215-0.23801440.78474280.03177181

-0.66849810.223186060.23782341.0657146-1.3150693
-0.16878517-0.10946575-1.01880490.42218587-0.84803504
0.457219180.36097970.98910540.068003796-0.68393713
0.3771064-0.35332763-0.86324270.33152460.25576523
-0.19336121-0.487997230.491355720.28994957-0.8142372
0.28705963-0.20689467-0.03552172-0.0103281140.8454848

0.133675050.30543286-0.46383607-0.67911790.11475896
-0.46727510.7262146-0.28729940.0275016430.296252
0.28703102-0.54918680.40922135-0.7119481-0.07440878
-0.080755875-0.14610058-0.17804074-0.35274756-0.42470923
0.07330984-0.274657760.54081476-0.11376893-0.095608436
0.179446650.194080740.6486233-0.29945758-0.7718367

0.433845820.202351450.0508082430.103591960.17753558
0.011408607-0.4825295-0.045642376-0.57795817-0.15088743
0.100196384-0.576255140.43777728-0.7371963-0.25361553
0.29939535-0.02786240.32193303-0.45328125-0.49554846
-0.55886114-0.9786574-0.4071038-0.0789678-0.1550584
0.06895351-0.329481540.23368506-0.180731940.018002542

-0.3558352-0.8150063-0.053886093-0.059464544-0.7045029
-0.2005247-0.225937160.023807127-0.39637676-0.19018875
0.206515150.69862150.425024870.263044450.021201676
-0.18573359-0.166177420.429682-0.17773832-0.7916642
-0.21412587-0.041874096-0.727188650.17298888-0.56864357
-0.17182103-0.15343328-0.371147870.58390766-0.30850208

0.23657441-0.104216196-0.462048650.41040775-0.1961405
-0.0637190.42065550.2089137-0.47614920.6257647
0.60654640.10472430.25013348-0.94527555-0.081055105
-0.39353734-0.247865440.006600797-0.0412781950.7175385
-0.6075666-0.249044220.48107070.328526560.6872771
0.334997120.434052320.106489636-0.03670489-0.2953326

-0.493818580.17852433-0.1099478160.5070009-0.0129749505
-0.0637190.42065550.2089137-0.47614920.6257647
0.60654640.10472430.25013348-0.94527555-0.081055105
-0.42803493-0.247865440.14216019-0.14440680.7175385
-0.20441407-0.249044220.48107070.328526560.6872771
0.1597221-0.22266357-0.00320552570.335533380.17701553

-0.36852193-0.019589359-0.659292340.402210680.54999423
0.1906276-0.032579450.77736217-0.611446860.16168216
-0.1171346460.17590714-0.7042330.209592670.05470804
0.044545706-0.2555578-0.31495565-0.213793-0.6240037
-0.462307480.054867636-0.0600571220.37405476-0.5138235
-0.0534752050.7385653-0.132909720.083436940.3449259

-0.245723290.8324206-0.319174860.24635850.16518517
0.079933360.15284863-0.6848205-0.0779469460.018865021
-0.11387906-0.448504540.8825216-0.055136353-0.29225513
-0.219719720.16883159-0.13886961-0.46803012-0.5433298
-0.21248877-0.09737534-0.237393-0.161525860.75400054
-0.88385135-0.179403130.51389426-1.10135270.6623417

-0.429873970.663893160.054415160.0177706370.30671388
0.4595750.54235750.6161897-0.69156986-0.2681873
0.099029660.3240735-0.33782572-0.49156424-0.5915642
-0.86452260.030088320.18374267-0.0644335-0.28335837
-0.6173086-0.233757050.0568498820.326203970.7086758
-0.17182103-0.14696406-0.371147870.1035515-0.528872

-0.66661584-0.027103998-0.368492450.179109780.05627016
0.0996495040.54235750.6161897-0.69156986-0.2681873
0.0222177670.54848474-0.08263287-0.160124640.2998413
-0.50577450.5497111-0.18182804-0.093027390.28288373
0.138634250.152138010.20515873-0.102209866-0.008889807
-0.50891054-0.25705636-0.37635872-0.49470390.09761045

0.4705303-0.374846370.5868654-0.23699870.58260125
-0.05215905-0.3058615-0.15677930.69947450.50442433
-0.12124353-0.3541515-0.322694330.55619430.1510665
0.044545706-0.2555578-0.31495565-0.213793-0.6240037
-0.462307480.054867636-0.0600571220.37405476-0.5138235
-0.487944070.27823895-0.409782-0.04953446-0.36649245

0.27120260.047374144-0.136889-0.2757197-0.103471704
0.32611156-0.51536036-0.4730432-0.70135190.107072696
-0.69846255-0.026560271-0.15040843-0.5634823-0.15112293
0.30313873-0.3895016-0.24608615-0.14919832-0.676934
0.7100024-0.560238240.36458260.35421920.36352962
0.85665470.44489217-0.9441480.9588809-0.30709034

-0.36852193-0.13907492-0.659292340.402210680.54999423
-0.21896322-0.58127390.318830430.3404839-0.34620282
-0.320908220.3545541-0.18883250.2694448-0.25342664
-0.0575509330.051432263-0.12990558-0.0134569580.36946163
0.4153087-0.67298830.20963554-0.59699080.21078505
0.1762766-0.016156888-0.206128390.16960281-0.51986784

0.4705303-0.374846370.5161767-0.73679640.8474595
0.352984130.58580220.21767792-0.073237850.23309946
-0.0448671650.022753961-0.248333330.24752659-0.28497577
-0.328561870.17285797-0.284022660.047395173-0.08058154
0.172860940.329834760.7013593-0.0300488830.713301
0.581433-0.324237880.331441-0.32332417-0.24145764

-0.17611736-0.0359329770.73736050.005008668-0.20199099
0.1906276-0.032579450.77736217-0.320132260.16168216
-0.1171346460.17590714-0.68320805-0.039370730.05470804
0.013708360.16681251-0.622178550.3980024-0.3793438
0.0898382440.22602464-0.33820890.16297330.21587142
-0.762141640.0532643980.016999278-0.57895637-0.48211935

-0.6803304-0.155014040.312169820.4051536-0.66529834
-0.38147256-0.48711422-0.03372485-0.48675190.4485474
0.10534528-0.032685526-0.187102210.214829040.5216643
0.5379532-0.342276420.09928462-0.43605226-0.23352997
-0.5804686-0.046791192-0.13957922-0.117087975-0.05485595
-0.323171470.25881273-0.42827925-0.0670434-0.029965498

-0.098753730.19079824-0.3197257-0.488783270.16172642
-0.0250709060.16558973-0.24322212-0.276011940.05808394
0.425466120.38395673-0.011187248-0.53198415-0.5919237
-0.168940440.66949750.186855350.39153870.32539663
-0.11842029-0.56142765-0.160497410.3499295-0.7045219
-0.88385135-0.179403130.43470958-1.10135270.5068759

0.314523070.219250340.21345627-0.31136692-0.4762657
0.22517383-0.173652870.042411167-0.3062853-0.63719386
-1.0085050.12174845-0.4128012-0.0974310340.3437957
-0.41508564-0.0203342120.059707970.28224072-0.11497893
-0.3157865-0.29926756-0.00315943380.13057652-0.12517552
0.1762766-0.016156888-0.206128390.16960281-0.51986784

0.15221043-0.16189897-0.151892750.678266940.47737458
-0.472177330.233735370.50323820.32322627-0.06751571
-0.040465940.17590714-0.7042330.209592670.21822059
-0.32258514-0.49516633-0.6236451-0.0359938-0.08358603
-0.0327850170.52009904-0.329754320.25539178-0.20982923
-0.487944070.278238950.124689735-0.04702294-0.54687935

-0.348376930.18128727-0.1321888-0.056911454-0.14844899
0.919844-0.37554050.0659389-0.17826146-0.37275028
0.243478670.1199559940.0561948340.83436790.21377638
0.540425840.08770297-0.059535194-0.9859874-0.20904031
-0.199301350.31556060.1798568-0.28901863-0.68177617
0.40007892-0.41068260.00584887530.4099651-0.11028075

-0.232865270.57132330.553169250.0487736-0.15125017
0.71363765-0.971533061.0365350.044745445-0.08471258
-0.0448671650.022753961-0.248333330.24752659-0.28497577
-0.57595485-0.232403220.07218003-0.407479880.35138264
0.79586726-0.174301340.285568540.22901532-0.58469355
-0.323171470.120927006-0.42827925-0.06704340.0814638

-0.36026716-0.25297695-0.431569070.34440595-0.19518833
-0.0344468430.2517338-0.166760730.0377833770.8662187
0.22123581-0.33387744-0.56595796-0.884932640.0179026
-0.43214375-0.516081630.41379870.237666220.17026079
0.2134746-0.29606742-0.8070183-0.593647660.3715551
-0.63789076-0.326284970.7032474-0.10216107-0.29274666

-0.6803304-0.155014040.312169820.4051536-0.66529834
-0.99420770.126335840.18169981-0.323702450.6337559
0.425466120.64691275-0.011187248-0.39708194-0.67663956
-0.168940440.66949750.186855350.39153870.32539663
-0.29958308-0.249044220.48107070.328526560.6872771
-0.17182103-0.14696406-0.371147870.1035515-0.30850208

-0.17978263-0.37565067-0.460353880.9769001-0.067277215
0.50418050.031604380.095558750.2279631-0.5221666
0.061615348-0.2698065-0.031885721.1699259-0.46657708
0.5143801-0.30995320.49244654-0.38059023-0.7152009
-0.4327976-0.0498788130.29468647-0.107597010.51598954
-0.90275633-0.093045580.507657770.842021470.6604536

0.0162023470.2200970.438267260.0733347460.1797835
0.228201940.041364044-0.17971858-0.274216920.23965095
0.243478670.194104970.0561948340.83436790.21377638
0.261512130.204141570.27982860.048014343-0.14536914
-0.199301350.31556060.1798568-0.28901863-0.71964735
-0.0032685308-0.3515039-0.0079852930.42990070.22023788

-0.150408130.234432440.43031585-0.478140230.2809723
0.47376030.2787029-0.35795210.12080559-0.6168287
0.45377220.40431374-0.18476075-0.43710166-0.2491667
-0.12301095-0.17032099-0.14564080.60697997-0.29768905
-0.248888760.15669891-0.49729308-1.14804590.0023042886
0.192010020.82683927-0.199288670.25327470.13297375

0.36013088-0.220507130.57069606-0.096735220.13011315
0.467831020.070799460.10463910.05098195-0.7014606
0.13723050.33455947-0.099303655-1.14299-0.026270881
-0.524244370.30230430.339960340.467499880.15935262
0.09486531-0.019418998-0.27781340.057189650.21329929
-0.035111446-0.108645640.53791744-0.62470055-0.4997028

-0.340564280.35510020.71943593-0.06276781-0.37505567
-0.472177330.233735370.50323820.32322627-0.06751571
0.030312587-0.4491818-0.15162238-0.140326170.060212348
0.17340602-0.0595067930.54943156-0.16521788-0.61688876
-0.150559920.35042850.599428240.729228440.17997298
0.07952653-0.22913842-0.60587150.16501370.24047235

0.71883110.5390903-0.3140066-0.5632224-0.11704615
0.595881640.391209540.16953053-0.19001186-0.5796136
0.22123581-0.38431862-0.56595796-0.884932640.0179026
-0.219719720.16883159-0.13886961-0.46803012-0.5433298
-0.21248877-0.09737534-0.237393-0.161525860.75400054
0.1597221-0.22266357-0.00320552570.335533380.17701553

-0.0705465450.2200970.34257580.0733347460.1797835
-0.46561820.337224360.593261360.012208289-0.31196135
-0.652964350.071598070.0906076-0.0077804965-0.40746704
-0.056169720.2350570.230955780.853398260.086467095
0.462948320.072592030.0188869090.36859462-0.7965154
-0.30225820.8062492-0.24532618-0.044657458-1.061102

0.30419865-0.23304348-0.629571140.213071350.5049964
0.122121416-0.4761501-0.23598390.6725556-0.15635912
0.28846565-0.21129462-0.799409570.193600310.20537816
-0.11551554-0.70767516-0.6023187-0.202301680.45388693
0.125834670.281780570.707396150.25944954-0.08110544
0.1656070.0125098150.275635240.19622442-0.40447116

-0.382428380.33891946-0.10938867-0.302315470.6536087
0.328947220.245483030.7662103-0.082891190.17920038
-0.0402044770.113861140.172232390.49207205-0.15610723
0.371413920.21921021-0.20115642-0.196813-0.23931457
0.195514620.024002004-0.9340779-0.04177035-0.42040995
-0.30096143-0.376679030.791756150.0593824760.14260153

0.7180219-0.174520030.103799485-0.36969367-0.5936485
-0.959216060.05578563-0.31225050.20705576-0.11819023
0.099029660.3240735-0.33782572-0.49156424-0.5915642
0.134777550.466710180.0365706940.23657851-0.44313812
-0.21248877-0.09737534-0.237393-0.161525860.75400054
0.1597221-0.22266357-0.00320552570.335533380.17701553

-0.15454315-0.8742156-0.26327953-0.6302765-0.080828026
0.429824080.44188830.31150988-0.023336561.384527
-0.49462720.405929420.43164137-0.17137599-0.27994627
-0.063776515-0.7459318-0.22697453-0.25858408-0.29639286
0.2710086-0.6204682-0.2337716-0.30110988-0.5158761
-0.195430190.057868548-0.366997570.33725476-0.5956623

0.175890560.088083394-0.58439690.283938560.2833089
0.06313304-0.12327956-0.011417407-0.0181919630.0026760083
0.00375922890.0151726530.22977872-0.6325738-0.046036497
0.2743498-0.958648440.071698904-0.029968502-0.7201453
-0.25168710.42279154-0.05105727-0.0995037260.602788
0.026142344-0.2822381-0.206128390.16960281-0.51986784

0.4705303-0.51972110.5868654-0.23699870.8474595
-0.4871801-0.10946575-1.01880490.42218587-0.84803504
0.399228630.36097970.775333170.068003796-0.68393713
-0.0248075610.184130920.0695384740.17269950.9391374
0.4692688-0.73628770.36458260.35421920.36352962
0.85665471.0472536E-4-0.95846950.95888090.04574366

0.30419865-0.23304348-0.629571140.261703520.24935044
-0.543770970.51273155-0.284315740.049294710.51076865
-0.1187997160.201223150.389291670.58325170.9538876
0.354523030.18342158-0.31248480.864366530.05128428
0.5930230.1084421650.30314225-0.25031757-0.5307718
0.44648653-0.47845715-0.0279628880.33437186-0.02507049

-0.2482954-0.367946830.071936870.65022620.11258674
-0.48482670.53462190.55879766-0.31139870.07125175
0.22123581-0.33387744-0.56595796-0.861736240.0179026
-0.43214375-0.463744340.41379870.237666220.17026079
-0.67741430.691935960.79992440.05863359-0.08657545
0.06895351-0.329481540.23368506-0.451301280.018002542

0.20789053-0.49581080.007420540.139308870.42016998
0.08233762-0.47673723-0.66984860.203920250.22305052
0.0018166824-0.46430240.41784084-0.10497994-0.4751069
0.3771064-0.35332763-0.86324270.33152460.25576523
0.226463590.49858356-0.7149629-0.280567380.1502152
-0.487944070.27823895-0.1906499-0.04953446-0.54687935

-0.285718470.8324206-0.319174860.24635850.16518517
0.120934580.15284863-0.6848205-0.0779469460.018865021
0.34602317-0.52573830.049864060.0231043160.25319597
-0.3559327-0.592683430.345730540.682512160.2433393
-0.29958308-0.053959040.48107070.328526560.6872771
-0.17182103-0.14696406-0.371147870.1035515-0.30850208

-0.3982356-0.543372750.18664113-0.326125620.55714554
0.50418050.031604380.095558750.2279631-0.4881049
-0.280081750.63170660.571568850.6676783-0.73342973
-0.0155976840.44928110.26821440.123100810.60336226
0.466336730.236773390.53499770.594184160.116509266
-0.323171470.25881273-0.42827925-0.06704340.0814638

0.4246228-0.518237771.1390374-0.31565452-0.6859474
0.15596542-0.124187425-0.250460860.66467410.11756278
0.275363680.177815910.084963724-0.30445480.6070322
0.108223870.09381480.40739191.18469560.10969381
-0.071391110.55857944-0.36594390.30347762-0.37988302
0.0163509040.16502783-0.61034840.2408688-0.5226978

-1.0469517-0.0771403240.23193793-0.184351120.23932606
-0.053632844-0.8816459-0.552297-0.821150840.081937164
-0.08224137-0.542363640.139066550.17493792-0.47401494
-0.12301095-0.17032099-0.14564080.606979970.33202955
-0.248888760.15669891-0.49729308-1.14804590.0023042886
0.192010020.82683927-0.199288670.2532747-0.05237846

-1.0469517-0.0771403240.23193793-0.184351120.23932606
-0.030282987-0.2649230.74246120.096542045-0.001874432
0.33079870.526864950.172432290.2952231-0.052110355
-0.164019840.10791649-0.172968270.07387158-0.22846958
-0.38157535-0.2024583-0.03490433-0.169836480.21523441
0.3827571-0.0479334070.18986689-0.1213489850.22112994

-1.0469517-0.0771403240.23193793-0.184351120.23932606
